3193 64
1958 0.23856638 -0.049995 1.2025809 1.026647 -1.0808014 -0.12804522 0.062390264 0.7666576 -1.1695913 -0.07621851 -0.03568235 -1.0755247 -0.32005808 0.32113677 -0.71250755 0.69963247 -0.3608649 -0.18187176 -0.37443048 -0.23345508 1.3015584 0.78344166 -0.56032586 0.24582273 -0.40270916 -0.38620543 0.19232519 -0.15827405 0.20537095 -0.10299245 0.28479397 0.34728548 -0.26011515 -0.80544 -0.5760548 0.99484026 0.57332444 -0.4897999 -0.733034 0.36361405 0.11886747 0.12378497 -1.0082047 0.43372646 1.3036199 0.04947081 -0.66782767 0.73623323 0.67266697 1.1150361 -1.6022054 -0.23340416 -0.37203598 -0.75507146 0.17911007 -0.73726714 0.26533833 -0.23933211 -0.48716828 0.16436689 0.2596652 0.6853404 -0.04346113 -0.25242433
1280 0.29067373 -0.49160576 0.022399295 1.3316034 0.44505578 -0.3694971 -0.15428486 0.80232424 -0.3802635 -0.97061247 -0.66862226 -0.73489624 0.4976789 -0.023898691 -0.22755651 0.8513906 -0.939057 0.051693186 0.4428383 1.156964 0.79470634 0.60750395 0.42855796 -0.23384914 -0.85072094 0.5971351 -0.60603637 -0.036673665 0.4013985 0.35183364 0.6468808 0.55607635 -1.460449 -1.3333318 -0.12660211 1.3155607 -1.1547666 0.07702666 -0.16237979 0.30147612 0.4205835 -0.63480604 -0.86866426 0.32070047 0.7128863 -0.22333977 -0.6350478 -1.4910058 -0.26857883 0.8500527 -0.624986 0.40544075 0.9888669 0.32044712 -0.32861304 -0.35939437 -0.28312913 -0.6034219 0.046084266 -0.6363952 0.24039094 0.5689344 -0.4365373 0.6109576
721 0.8233703 -0.040738497 0.929379 0.026154071 -0.03183359 -0.67673004 0.47932255 -0.46988317 -0.44461763 0.5547357 0.74700797 0.6984148 -0.10815064 -0.7098531 -0.78649807 0.80151296 -0.47643492 0.762764 -0.33501413 0.8242747 1.0177298 0.59215665 -0.26588917 -0.7055179 -0.3861826 -0.24534756 -0.4748075 0.15641661 1.1350696 0.48058653 0.15547079 0.41055754 -0.94414824 -0.19654429 -1.033623 0.56833404 0.46404183 -0.4691789 0.4721998 0.5858697 0.4607467 0.49610195 -0.11769274 -0.49323216 0.743623 1.1523969 -0.94684255 -1.2936887 -0.14657678 0.0905747 -0.25462294 -0.59918517 -0.55185765 -0.4592667 0.63263553 -0.4441249 0.27193353 -0.33791697 -0.49470672 -0.5130665 0.27154133 0.4191672 0.14644781 0.18794145
1282 0.27843896 -0.4827663 0.095069066 1.314561 0.4131255 -0.3178456 -0.18351057 0.82513374 -0.375473 -0.95073485 -0.66141003 -0.75764656 0.4987948 0.0442851 -0.22818217 0.8546813 -0.97898394 0.061898805 0.3985041 1.1692383 0.79336685 0.6514777 0.42668873 -0.19783741 -0.84820104 0.57368606 -0.61292565 -0.08412923 0.3360229 0.353182 0.64988184 0.6064135 -1.4409683 -1.3074147 -0.15177707 1.2860711 -1.128784 0.07663302 -0.1387842 0.2670236 0.37868676 -0.6338957 -0.87856215 0.28053248 0.6986488 -0.205753 -0.6683744 -1.4711509 -0.2788234 0.87466997 -0.6506889 0.4114316 0.94019 0.3031845 -0.3408396 -0.38840058 -0.25352582 -0.6025753 0.02874562 -0.6102304 0.21539368 0.537724 -0.38945118 0.6527992
726 0.880728 -0.07256046 0.99041593 0.08187694 0.104307674 -0.6138446 0.4740827 -0.22439367 -0.5663569 0.55947864 0.69220054 0.81015384 -0.083154455 -0.7076317 -0.5645563 0.8788996 -0.5022529 0.6930496 -0.31818378 1.1766335 1.0461267 0.6477585 -0.20980187 -0.7121291 -0.33136836 -0.24497615 -0.46247146 0.06387986 1.1188095 0.41082782 0.0861926 0.40804395 -0.74170893 -0.17869206 -1.0241357 0.43608293 0.7071847 -0.6124762 0.40764433 0.6091495 0.43543485 0.43392187 -0.022888845 -0.37309808 0.8321273 1.1989816 -0.8822963 -1.349787 -0.12115461 0.109562196 -0.24371125 -0.5684859 -0.5335541 -0.45053694 0.51919657 -0.3328329 0.2053705 -0.1491088 -0.43567252 -0.5207987 0.26748565 0.40226868 0.032439757 0.25330147
570 -0.43598208 -0.34532127 1.6709542 0.3833009 -0.08600608 0.39183423 0.28946048 -0.3966929 -0.7736842 -0.25153655 0.26306432 -0.8679649 -0.37166587 0.07771847 0.50695735 1.0625727 -0.15349934 -0.3708938 -0.29000536 0.98851746 0.48050183 0.70085764 -0.005539185 0.124034286 -0.45819086 -0.8173035 0.42306295 -0.027470773 0.31155807 0.13262527 0.30660275 0.62563133 -1.3303334 -1.5419703 -0.016193476 0.41665664 -0.15882915 -0.064859785 -0.041433055 -0.0360465 0.3600179 0.18488787 -0.3806337 -0.19073074 0.6510629 -0.005291815 -0.89737445 0.37463236 0.0935328 0.10941347 0.37927735 -0.178008 0.13016036 1.2262758 0.036041133 -0.912583 -0.3280933 0.21268798 -0.19776088 0.82185405 -0.25904024 1.3344465 0.43991223 0.35283002
3088 0.40743765 -0.5078774 0.75170696 0.280438 -0.28874707 -0.4657384 -0.20965825 -0.014061615 -0.45056152 -0.5686132 0.7265023 -0.1663504 -0.33851683 -1.3657202 -0.06667432 0.4633483 -0.77425396 0.44091555 -0.91750467 0.7730573 0.40042865 0.39709193 -0.5451071 -0.03421456 -0.9420368 0.54028296 0.14257352 0.15182641 -0.3559884 0.8469926 0.7990553 -0.16783282 -1.0055062 0.56164336 0.40010783 0.45168778 0.49103332 -0.6250643 -0.44652116 1.2036129 0.5659466 -0.7503891 -0.21239649 0.53272855 0.75500643 0.7567154 -0.3779163 -0.51252407 0.1359372 -0.25052026 -0.05847738 -1.5974523 -0.50058866 0.66460335 0.23340982 -0.17623144 0.37566575 -0.07729448 -1.9083871 -0.065485366 0.25449097 0.23751199 -0.12832463 0.006564843
514 0.14481646 -0.5847493 -0.049147252 0.5573655 0.32720485 0.10467182 -0.004666644 -0.9639077 -0.33392558 -0.5204496 -0.26559156 -0.7746586 -0.0851206 -0.67244446 0.0010600908 0.8274443 -0.120749794 0.1648279 0.38328212 0.27683657 0.24236438 1.0087233 -0.51215947 0.059889745 -0.51141846 1.1336329 -0.17131352 -0.23655206 0.31322578 0.834338 0.66972655 -0.60535884 -1.8673137 -0.5728168 -0.60274714 0.4305286 -0.13700986 -1.185967 0.15432878 0.05194242 -0.3432245 0.029752646 0.33858073 -0.18769936 0.26796338 -0.21556991 -0.94622016 -1.3000461 0.20541798 0.7888991 -0.4443968 -0.21453117 -0.57731116 0.2765127 0.4647986 -0.11891813 -0.46570998 -0.052416913 -0.9473999 -0.052768588 -0.28269312 -0.2592541 0.34772035 0.09222973
1909 -0.19692409 -0.42418614 -0.3711216 -0.043938268 0.09175914 -0.43675724 -0.27650794 -0.06122458 -0.9078807 -0.57107747 -0.15834714 0.24151856 -0.67775875 -0.96471703 0.28924567 0.2721924 0.058334142 0.43731847 0.012303432 0.055546023 0.3083089 0.13575356 0.02165584 1.1179516 0.6510582 0.0049965465 0.38851094 -0.022549886 1.5745665 0.29322508 0.69299126 0.57875574 -1.0750389 -1.0136274 -0.2288083 1.0649906 -0.05621185 -1.0545944 -0.50435627 -0.26928678 1.2968827 0.47971576 -1.5436107 0.73688287 1.5133306 -0.4516808 -0.937976 -1.5581955 0.70960927 0.9014446 -0.3039629 -1.0072681 0.46521354 0.06540711 0.0062240884 -0.4847855 -0.4464055 -0.77561885 -0.3931296 0.301889 -0.17207634 1.1377481 0.09804079 0.74598855
60 -0.31644478 -0.15936853 0.735105 0.8245945 0.5566612 -1.0110406 -0.15796301 -0.5329163 0.06454852 -1.3178627 -0.288857 0.039427273 -0.28915468 -0.35760295 1.2041599 1.718339 -1.196827 -0.8468057 0.9954282 0.8699865 0.027284753 -0.28966302 -0.18969591 -0.7448912 0.107098006 -0.8152287 -0.64316857 -0.039702598 0.26213676 0.6221173 0.957052 0.12115244 -1.8303599 -0.9697725 -0.33377498 0.8300064 0.025952216 0.4913368 -1.0425701 0.8210662 1.5480086 0.7771975 -0.6042223 0.028220192 0.8974091 0.14532487 0.123870276 -0.29250142 -0.2259304 0.51469 -1.0567422 -0.35436448 -0.1479597 -0.16153267 0.023919681 0.34176865 -0.23440889 0.22184587 -0.76929086 0.31804073 -0.56305355 0.39623824 0.25537926 0.20149967
1676 0.63946056 -0.9474796 0.48190394 -0.08292273 0.44472516 0.36074322 -0.5317855 -0.42316735 -0.8068565 -0.22729422 0.61874044 -0.43124768 -1.1784062 0.24785596 -0.36706254 0.1868011 -0.0027277798 -1.4152418 -0.28370368 0.38258898 0.5012547 0.3711351 -0.24257755 -0.4813263 -0.9097946 -0.34019446 -0.7040587 -0.086019404 0.10375014 0.23686159 0.56459564 0.16198622 -0.72070825 0.27413052 -0.52736205 -0.108052604 0.09584437 -0.18190043 -0.82199377 0.66075814 0.58513945 -0.2985588 -0.2876079 0.90932196 1.1416404 -0.04892592 -0.20699634 -0.8704569 0.051198177 0.70001966 -0.13524383 -0.43962383 0.4562043 -0.4562313 -0.02115356 -0.421281 0.9922509 -0.93169165 -0.38175508 0.4568527 0.073432736 0.39117008 0.90802854 0.96116984
3181 -0.5085458 -0.13638498 0.68302757 0.6812611 0.5448277 -0.51596874 -0.33255744 0.31170186 0.1752207 -0.6239406 0.030582411 -0.79550594 0.23135443 -0.3867778 -0.7014136 0.5616849 -0.43959957 -0.5038885 0.34470257 0.36725643 0.003376592 -0.105341695 0.000204283 -0.08557236 -0.75754577 -0.15812847 -0.25564888 0.08708092 -0.27870354 -0.47474974 0.80244154 -0.19960491 -0.7855468 -0.32617015 0.37939253 0.98490447 0.7785728 -0.6923175 0.11291998 0.3648906 0.7248804 0.120464526 -0.038337063 -0.37277004 1.9902297 0.3616135 -0.5156599 -0.87400335 0.5438951 0.16592225 -0.070463814 -0.010494187 0.2631933 0.41863763 -0.3760744 0.061571676 0.9277684 0.23584926 -0.87471956 -0.38297606 0.09079559 0.67592657 0.72241914 0.6005118
3179 -0.12537982 -0.07446698 0.91871053 0.808671 0.5797352 -0.53525966 -0.20061357 0.36734116 0.43152356 -0.52734745 0.24076234 -0.69540495 0.32236403 -0.34112594 -0.65519226 0.24819106 -0.33577922 -0.4085396 0.4102372 0.5392158 0.30495343 -0.113757074 -0.16842195 -0.26946512 -0.32710454 -0.32013673 -0.121171534 0.035513688 0.19150652 -0.27940357 0.5795293 -0.2083664 -0.6870033 -0.14414716 0.26239553 0.95950496 0.72501886 -0.48344335 0.09109197 0.12902106 0.7133212 0.18556792 0.13725801 -0.5791735 2.0594392 0.2550105 -0.7602422 -0.5684878 0.44693503 0.4242564 -0.24296005 -0.11385674 0.2704193 0.43991196 -0.2076765 -0.0751277 0.9607549 0.1822584 -1.080494 -0.5353786 0.041117296 0.4721808 0.7453834 0.66542387
77 0.40768307 -0.4899995 0.45434222 0.5695153 0.19146658 0.81272286 0.33869228 -0.49141726 -0.6270365 0.6374801 -0.22872265 -0.522662 -0.8092923 -0.2307579 0.21866322 0.781646 -0.010215433 -0.3423017 -0.07836767 0.47384307 0.29437473 0.0676765 0.34515914 -0.32443556 0.32886708 0.14021374 0.5434158 -0.30509266 0.43170956 0.061176077 0.9622537 0.12676696 -1.4375017 -0.66596615 -1.5053936 0.3498648 -0.48726964 -0.9221575 -0.6585322 0.270587 -0.0014956933 0.6178554 -0.28283066 -0.22774293 -0.010323422 -0.6411337 -1.0631778 -1.1342387 0.45829546 0.055040102 -0.18727665 -1.0080713 0.91501856 0.019931423 0.05726649 -0.04968929 0.13423803 0.47766766 -1.1526643 0.41945735 0.23894073 -0.13817345 0.7192846 1.6967615
2035 0.45963868 0.31764475 1.1447544 0.73178184 -0.7839752 -0.25281978 -0.5723665 0.6173178 -0.10664605 -0.27977777 -0.0036167745 -0.29151383 -0.82911754 -0.17524658 0.39426133 0.74381316 -0.06485416 0.27721402 -0.5544723 -0.10767444 -0.11000038 0.7317748 -0.22103946 -0.37599126 -0.41026476 -0.7579938 -0.0047966093 -0.44488946 0.7236394 -0.77029955 0.31807613 0.94516313 -0.39514628 -0.418248 -0.12243443 0.14142169 -0.54127914 -0.3092799 -0.5909338 -0.49114382 0.015419081 -0.900703 -0.37775943 0.63096195 0.9778494 0.4485485 -0.32162702 -0.25720978 0.18483485 0.34084898 -0.5753303 -0.8158179 0.53144073 0.39830524 -0.038635742 0.041997526 -0.06848845 0.6016502 -0.97032654 -0.59770954 -0.4435157 1.213074 -0.0793108 0.83803916
1682 -1.1668832 0.20889576 0.4441537 0.66136295 -0.04292184 0.13383009 -0.79223925 -0.17327358 -0.25886577 -0.40305108 0.27201954 -0.113943845 -0.6386839 -0.6970177 0.717683 0.64987314 -0.05715584 -0.6567524 0.7837101 1.1952603 0.27323565 0.5013236 -0.34668037 0.35494485 -0.0031492687 -0.7418426 -0.96451646 0.5095448 1.1186506 0.9764577 -0.12059107 0.7805608 -0.9126215 -0.5010747 0.24490802 -0.29220536 -0.6888909 -0.8401639 -0.05983059 0.22467755 0.8809272 -0.24839789 -0.4666193 -0.25571856 0.33861676 -0.3008706 -0.88969433 -0.8025914 -0.43115032 -0.10910474 -0.76867974 -1.0085552 0.42554113 -0.94640094 -0.39994097 0.3622623 0.18036851 -0.51896226 -1.2040044 -0.3154365 -0.1325898 1.2534853 0.74239695 0.09745136
1428 0.4090218 0.19348298 0.64495814 0.93719286 -0.059681803 0.41062793 0.07296864 0.5285824 0.1350099 0.46906623 -0.2770107 -0.5604255 -0.17057225 -0.2655339 -0.061352994 0.85273105 -1.0906698 -0.5089808 -0.7725196 0.6778718 0.123907104 0.65129423 -1.0585057 0.6189021 -0.38671955 0.5971866 0.08772841 -0.045898836 0.17782053 0.2380648 0.39899656 0.4022916 -0.7741278 -0.8291262 -0.43348742 0.748061 -0.69864696 -1.013959 0.06798731 0.18002358 -0.7631971 -0.6972585 0.07690607 0.3082318 1.0939721 -0.19527298 -0.52038884 -0.4057593 -0.074539594 1.095287 -0.49986833 0.1795804 0.9628984 -0.5196868 -0.5543573 0.42237547 -0.07776387 0.46520865 -0.27974698 0.93647337 0.46238336 0.36333498 0.10140121 -0.06726388
819 0.5408936 1.0377256 0.49201918 0.3040875 0.27258465 0.21718603 -0.82897496 -0.34135672 -0.49966347 -0.33475724 0.8319993 -0.16807717 0.31110793 0.2922897 0.5272086 1.0090321 -0.41053954 -0.4433337 -0.34222707 1.0059086 0.23939621 -0.41100636 -0.34711206 0.05580112 -0.5369955 -1.0676621 0.5478192 -0.75476587 0.42257494 0.39955968 0.5597639 -0.011611532 -1.1340531 -1.6785228 -0.058015212 0.31547034 -0.6399503 -1.0241529 -0.5831575 0.498623 0.7862332 -0.3150724 -0.58530843 0.63260496 0.63489985 0.7971246 -0.85862577 -0.4805374 -0.17701289 0.36545682 -0.9436175 -1.3207529 -0.3287748 -0.33584005 -0.3377186 0.65303856 -0.7575891 -0.17005719 0.07749035 0.15392596 -0.43894994 1.5556197 -0.3561885 -0.89196944
2123 0.50090855 0.2712161 0.32129914 0.3397006 -0.5136662 0.40721017 -0.2006959 -0.9565659 0.18940234 -0.6183516 -0.32061446 -0.50819683 -0.898651 0.055217464 0.041835543 1.2207432 -0.58827347 -0.09664194 -0.5047152 0.6456777 0.48889592 0.94095325 -0.33705944 0.47631148 -0.63567406 0.029502219 0.23961788 0.3853465 0.38898084 0.23716323 -0.5313005 0.34420034 -0.19437785 -0.048671048 -1.1985446 0.94802225 0.5119981 -0.25247726 0.018534988 0.56506354 -0.29016152 0.8175549 0.007363022 -0.5590874 1.4235482 -0.07375899 -0.44236663 -0.3074176 -0.19650105 -0.15627232 -0.37165827 -0.8804039 0.22845297 0.7510872 -0.56424767 0.22979875 0.15931092 -0.83741105 -1.1397964 -0.7027389 0.21883799 1.101576 0.68416005 0.4907869
2476 0.7362159 -0.24435073 1.1122531 0.40672874 0.49326557 0.43149504 -0.1482688 0.30145144 -0.10691533 0.06713035 -0.5721909 -0.06296017 -0.0041263206 0.23614384 -0.60454136 1.9863838 -0.8563036 -0.9668884 -0.22577702 0.02972743 -0.11907683 -0.3255379 -0.20561598 0.20901848 -0.1468376 0.04423296 -0.11271751 -0.24649896 0.19910179 -0.0983251 0.88765305 0.12898318 -1.7508278 0.27964196 0.083390094 0.060411584 0.130116 -1.0587738 -1.2157731 0.68511313 0.08539497 0.18531513 0.301565 0.4802061 0.4382228 -0.35263994 0.31950557 -0.3819155 -0.2534318 0.47328377 -0.51249605 -0.8454925 -0.7846115 -0.32282436 0.47964665 -0.535957 0.63517267 -0.12248718 -1.1528834 0.23851171 0.123937756 0.11003641 -0.06698476 0.41579056
108 -0.024174588 0.63512003 1.1897798 0.12763028 0.19017135 0.5625716 0.25014582 0.51968205 -0.5511053 0.07563051 -0.463056 0.24551956 -0.13334501 0.058517933 0.6465461 0.80417395 -0.63267684 0.5715996 0.6182289 0.48120305 -0.043771673 0.393577 -0.83781254 -0.49279523 -1.0825385 -0.68878543 -0.31539282 0.7421306 0.953114 0.66455126 0.078732505 0.58510804 -1.4983525 -0.9542094 0.5826477 0.28400743 -0.12417664 0.5565498 -0.04142703 0.35854527 0.71898234 0.2299591 -0.29761514 0.63188696 1.0192767 1.1171933 -0.33876315 -0.6292214 -0.42119566 0.75318515 0.17015098 -0.51538366 -0.10081335 -0.42211065 0.70995927 -0.1736663 -0.47738507 0.5341868 -0.81876403 -0.18341893 0.24502055 0.6185574 0.3919472 0.49622822
1372 -0.0054634796 0.013710929 0.8514399 -0.17220716 0.09395302 0.80799025 -0.12681143 0.08940932 -0.46802375 -0.44010463 -0.3112196 -1.0036517 0.010222594 -0.054609936 0.22430927 1.2978054 -0.40903005 0.46753788 0.06849188 0.32088277 1.5838653 0.47813237 -0.74237895 0.11510379 -0.41350684 -0.050136242 -0.32688722 0.23788173 -0.3559625 -0.11867235 0.3758538 0.4343219 -0.7616176 0.022729019 -0.26505393 -0.10494699 0.58191425 -1.404401 -0.51397276 -0.24300621 0.9994318 -0.3711816 -0.24845473 0.2851015 0.49587163 -0.5244667 -0.029864155 0.017643351 -0.49712694 0.7688909 -0.36639237 -0.40950906 0.22379008 -0.28193557 -0.016712708 -0.22408247 0.22623286 0.92920154 -0.98760575 -0.40206805 -0.34548315 0.7700515 1.209092 0.17072979
1812 0.69275475 -0.6089555 1.1344038 -0.021106731 0.41481146 -0.62096786 -0.34993625 0.5098632 -0.1163184 -0.35625482 0.18481117 -0.9070571 -0.031990636 0.49808076 -0.011540412 0.11606733 -1.0542874 0.37244308 -0.25207946 0.50524306 0.5801063 -0.052054685 -0.84553796 -0.46571615 -0.32099077 -0.27096847 -0.8150164 -0.6156827 1.0763361 1.1278445 0.418068 0.93321896 -0.6446332 -0.7246313 -0.2425871 0.5816034 -0.024804523 -0.37271965 -1.2319692 0.6691171 0.62504333 0.03181495 -0.62258846 0.9728398 0.3747056 -0.078816585 -1.0840594 -0.42684877 0.60794234 0.30825803 -0.48740563 -0.12973171 0.36248496 -0.42766765 0.0032475516 0.61599225 0.91358984 0.88685834 -0.22791164 0.049108773 -0.211405 -0.0075921267 -0.073392816 0.051329345
2719 0.56665236 -0.6084662 -0.08383362 -0.093592584 0.2837981 -0.12506059 -0.043516245 -0.43787056 0.110350214 -0.019810408 -0.011405168 -0.2560809 -0.15962741 -0.025196921 0.2895297 1.3325403 -0.03919497 -0.20006888 0.12592126 1.2646956 -0.18798575 -0.329325 -0.3586564 -0.28271097 0.09082951 0.08771231 -0.97940415 0.8636716 0.30568394 1.1613345 0.10439724 -0.614884 -1.2980759 -0.54926026 -1.2074431 0.75874156 0.32144216 -0.5956476 -0.64653254 0.09348384 0.35594332 -0.54727566 -0.1767475 0.03913826 0.48883775 0.5357208 0.06000792 -0.3123454 0.027049143 0.7357321 0.09009161 -0.47350794 0.017979356 -1.0786625 -0.104336105 0.50231445 0.16797772 -0.39017823 -0.17340924 -0.588551 0.20998019 1.0997305 1.156816 0.08326094
2491 0.75186366 -0.550697 0.3956312 1.0366137 1.1050918 -0.4628312 -0.33084285 0.47665405 -0.25613907 0.051920626 -0.92914754 -0.7732898 0.10717319 -0.35402057 -0.2974274 0.97754294 0.22645272 0.07258419 -0.1271568 0.8997483 0.5463617 -0.2240543 -0.13286132 0.08659516 -0.50824046 -0.27490622 -1.0829325 -0.5594348 1.315816 0.12517928 0.027491903 0.76574636 -0.33769286 -0.17046048 -1.1442081 0.34458396 -0.07814036 -0.82596046 0.15606777 1.021024 -0.27781734 -0.22810753 -0.27514586 0.22395562 0.44139692 0.025438346 -0.9309546 0.027350558 -0.7988902 0.52638817 -0.58577985 -1.5101308 1.2004062 -0.31745866 -0.21214396 0.59075904 -0.3822929 -0.7736965 -0.9458644 -0.24215685 0.27534816 0.79194325 0.35222942 0.15069547
529 0.48850623 -0.7785705 0.720295 0.15146871 0.6187154 0.32368755 0.12003161 -0.010853616 -0.640869 -0.27521214 -0.009970797 -0.6874314 -0.6586084 0.8475754 -0.77987 0.92457134 -1.0097764 -0.1516922 -0.22791551 0.13238281 1.1087506 0.69500726 -0.34215155 0.5856097 -0.51759404 -0.53359735 0.16765119 -0.4361847 -0.09729876 0.22405256 0.41539007 0.56897354 -0.55724806 -1.3981414 0.42419407 0.10661162 0.24306902 -0.2047308 -0.71807516 -0.8920772 0.26696405 -0.16957097 -1.1934185 0.40320715 0.34154615 0.5052952 -1.1791013 -1.0903339 0.4800384 0.3582428 -0.105018586 -0.30864763 -0.10300094 0.9211709 0.037776772 -0.25412825 -0.39077836 -0.51439595 -0.85727733 0.80091447 0.16607796 0.5424386 0.6958542 0.97892535
1970 -0.5614316 0.13176557 0.84043384 0.36543092 0.5039792 0.56680125 -0.57236254 0.3392965 -0.680718 -0.23937997 0.48494115 -1.2156086 -0.45746025 0.27224085 0.6441766 0.17249589 -0.35368854 -1.0959611 0.36404276 0.38559985 -0.008445553 1.0180637 -0.7403065 -0.34368837 -1.105476 -0.47149563 0.5623288 0.7148168 0.604451 0.7123134 0.22636071 1.067159 -1.3309375 -0.29077446 -1.5755118 0.14708637 0.114089124 -0.035578817 -0.32359764 0.4750181 0.5098011 -0.7343651 -0.030900246 0.8584351 0.8164544 0.036011197 -0.13089347 -0.7181207 0.45811048 -0.032960802 -0.19170812 -0.6299858 0.36229518 -0.26702574 0.3432602 -0.21850514 0.72362906 -0.53144765 -0.3829626 -0.16424671 0.14297394 0.38642883 0.2533247 0.4398815
1913 -0.23752427 -0.3775273 0.7036261 -0.023344265 -0.6146829 -0.5737012 0.5816835 0.4108411 -1.1657765 -0.11552035 -0.15615821 -0.6654946 0.42149433 -0.8587665 -0.14032334 1.1225165 -0.968017 -0.5227569 -0.60330737 0.7352421 0.06837317 0.7485001 -0.2163228 -0.11426777 0.2682624 -0.46154657 0.53847474 -0.060599927 1.2935513 0.02929075 0.03127594 0.36505526 -0.9798636 -0.35087553 -1.0455208 0.066908464 -0.15375707 -0.7694114 -0.7511459 0.38138175 0.3464497 -1.124517 -0.053066105 -0.07090681 1.188151 1.1135272 0.23529285 -0.019383963 0.58037466 0.9529978 -0.3428754 -0.18866034 -0.3382078 -0.2868683 0.6563073 -0.038794033 0.8543138 -0.057550386 -0.036419258 0.31386808 0.67764986 0.34922037 1.0821784 0.3428355
2395 0.54283744 0.08446265 0.052757226 0.6923969 0.2853624 0.10919121 0.08212892 -0.19447571 0.3798406 -0.21991983 -0.5891462 0.26984462 0.117800266 0.054132134 0.038493045 1.1342077 -0.62908816 -0.6719809 0.2453848 0.29150745 0.25531328 0.51535904 -0.3263331 0.29566616 0.03184246 0.5028476 0.06792414 0.5622051 0.9757086 0.79179084 0.92506135 0.694509 -0.2762802 -0.86600566 -0.7721543 1.2857722 0.66758454 0.10629152 0.22687867 0.39414957 0.09579209 -0.44349605 -0.82821834 0.6145641 0.24377389 0.3367307 -0.71868867 -0.491501 -0.12493627 0.28592637 -0.41078207 -0.6207743 -0.12335325 0.06464178 0.0026980168 -0.30494237 0.810145 -0.22425668 -0.5887335 -0.030175531 -0.30285633 -0.7325653 0.6146189 0.9661243
1903 0.031042058 0.74499875 1.3100568 0.009048408 0.19927123 0.5305933 0.27488497 0.60571396 -0.5735165 0.118248805 -0.378684 0.34525147 -0.052120488 0.25870466 0.6287471 0.5757004 -0.67793304 0.6823388 0.5787131 0.5835918 0.08537779 0.45966822 -0.93678373 -0.43985283 -1.0168645 -0.6049121 -0.30080295 0.756089 0.965337 0.6903264 0.0073058545 0.5599367 -1.2966995 -1.0496567 0.45860112 0.26461345 -0.06633522 0.58162 -0.018343627 0.5663472 0.72022486 0.2331407 -0.31475696 0.69845957 1.1512607 1.0781729 -0.43913043 -0.57925445 -0.40188166 0.7761165 0.12721291 -0.6514728 -0.07550342 -0.22126444 0.57147205 -0.24871959 -0.23266414 0.590337 -0.7836111 -0.25485614 0.27886674 0.8565851 0.38061965 0.6277164
1790 -0.22602522 -0.07950404 0.76844966 0.04671298 -0.48708683 0.4154051 -0.0069583375 -0.6618631 -0.37912923 0.40637922 -0.2906472 -0.70558906 0.0680156 -0.6935057 -0.45321 1.5724496 -1.0548627 -0.97973 0.367574 -0.033388913 0.269342 0.6581885 0.0053557293 0.28442866 0.17210542 0.18113148 -0.04578234 0.54552794 0.46028778 -0.04298142 0.41026923 -0.9420358 -0.747497 -0.52432483 0.053319037 0.5447117 -0.33450708 -0.517655 0.047220614 0.9563894 0.5737804 -0.5330904 -0.11019186 -0.4584204 0.5476055 0.69116044 -0.7896683 -1.2358135 -0.729534 0.08292868 -0.7699735 -0.13861534 0.7086754 -1.1402667 -0.33252388 0.029530395 0.05959664 0.5075252 -1.5419117 -0.01965252 -0.6936787 0.05373578 0.35524675 0.6559397
1242 0.8325681 -0.35267895 0.25809407 0.20198767 0.7350429 -0.7236704 -0.02077079 0.4595679 -0.745628 0.5002663 -1.00608 -1.0964422 -0.5858778 -0.2167566 0.5668615 1.767434 -0.28808606 -0.38199908 0.11666908 0.6596386 0.49558562 0.40764165 -0.7088078 -0.17918581 0.36127275 0.038302485 0.20884821 0.06297514 0.48260787 0.8879482 0.45691046 -0.40662238 -0.6678684 -0.52075225 -1.0362376 0.37063238 0.54449177 0.29246897 -0.83169544 0.8526916 0.6507116 -0.37085104 0.0071441713 0.39314985 0.4062497 0.46808195 -0.98642576 -0.60588545 0.67688763 0.9299111 -0.89915425 0.011100621 0.61185116 1.0401292 -0.057766777 0.3141733 -0.19289736 0.0591678 -0.38146567 -0.07149281 -0.4467044 -0.005264433 0.072693825 -0.6405891
2576 0.04592148 0.7164767 1.3004102 0.031407963 0.25319213 0.44843316 0.18518193 0.49671584 -0.61007226 -0.017573694 -0.4401723 0.3143065 0.062069707 0.23191144 0.6571362 0.58923113 -0.80491275 0.52440774 0.7153319 0.4983767 0.055545676 0.4898405 -0.7000366 -0.43490848 -1.0045075 -0.5666931 -0.3691285 0.7161129 1.0388261 0.5490789 -0.038269263 0.5579753 -1.4220668 -1.0289971 0.4677974 0.22010325 -0.1496514 0.64467126 -0.052695952 0.41733262 0.760607 0.28771538 -0.33281583 0.70501614 1.147681 1.243341 -0.35290346 -0.6234116 -0.36222902 0.77996534 -0.04321184 -0.41913697 0.042352643 -0.24321716 0.6018667 -0.28282455 -0.3671207 0.53076667 -0.8025372 -0.17967822 0.28065085 0.79743886 0.3789192 0.55755645
890 0.3978881 -0.2842781 -0.32989135 0.12075439 1.2757922 -0.18056801 -0.83417726 0.3179815 -0.17816624 -0.76439893 -0.35857537 -0.5542181 0.1056672 -0.23088507 -0.4886129 0.62650937 -0.23577528 -0.2200672 -0.09823001 0.62702703 0.80957776 -0.3921927 -0.015066559 -1.0970535 -0.5730715 -1.2330182 0.22490732 -0.4374649 -0.27021644 -0.14148311 0.6100666 0.1997638 -1.7384876 -0.59559304 -0.6757892 0.21501929 -0.024205416 -0.3712958 -0.124691114 0.6650849 0.6351993 -0.1967663 -1.078904 -0.024778748 0.83198303 0.23319131 -0.96250373 -0.97346693 -0.5310489 0.76911527 -0.42198527 -0.2589934 0.42690617 0.41322476 1.0600418 -0.3465953 -0.60030884 -0.24475531 -0.8094466 0.48805833 -0.029609041 0.38001525 1.0572048 -0.1785479
3003 0.5722361 0.26035064 0.6075657 1.1298058 -0.17760494 0.62059134 -0.00057844963 0.33962607 0.1090385 0.37301284 -0.15187018 -0.6155065 -0.18643512 -0.26619717 0.060223 0.7425452 -1.1342562 -0.7317416 -0.7994244 0.44998777 0.20526204 0.9036164 -1.0678016 0.7303987 -0.17469761 0.6398057 0.1685386 -0.111988 -0.021253645 0.09993766 0.5202773 0.37411305 -0.81303227 -0.8472397 -0.47686738 0.7662671 -0.47561112 -0.99649525 -0.0024766598 0.18704933 -0.7685793 -0.7952452 0.109499045 0.45414385 1.0570136 -0.19141212 -0.67237103 -0.40459913 -0.09489827 0.9648592 -0.3497123 -0.0010985121 0.91352594 -0.498408 -0.52761847 0.4088979 0.049451087 0.16962439 -0.1918325 0.95281476 0.48982492 0.4450616 0.13667582 -0.06592234
1450 0.7740016 0.7360584 0.27015617 0.019739687 -0.15555327 0.42109236 -0.5753266 0.5574005 -0.5862649 0.14606372 -0.2855329 -0.46888956 -0.53121436 -0.34225178 -0.16616565 0.55110353 -0.54899573 0.0083731515 -0.5719248 0.6265975 -0.32335934 0.8498886 -0.16342676 0.50604945 -0.83123636 -0.8115402 -0.45602122 0.23196073 -0.004386286 1.0051757 0.18660253 -0.20454064 -0.91833246 -1.3613248 -1.4615649 0.19494028 -0.46427792 -0.60617244 -0.96099603 0.38134488 0.65615416 -0.3720286 -0.17608856 0.23658317 0.119059704 0.24943066 -0.43646547 -0.33717456 0.7723959 -0.0058224723 -0.29821163 0.17938769 -0.06465235 -0.11763735 -0.09360132 -0.85405284 0.6253054 0.41447303 -0.19227028 0.78489506 -0.8692366 0.87086517 1.1595072 -0.08946328
2144 0.8555078 -0.48748192 0.12884235 0.5952124 0.48177594 -0.143327 -0.5868629 -0.4425986 -1.1813637 -0.35257757 0.34298638 0.39193442 0.19081964 -0.75742155 0.24094349 0.92656523 -0.052451756 -0.42040366 -0.07243814 0.9461637 -0.22923508 0.8763594 0.030067846 0.4916101 -0.15242323 -0.79426235 -0.17485133 0.023822127 0.74669653 0.22712296 0.36845446 -0.39582047 -0.51941705 0.19315147 -0.22611062 0.26351032 0.7523649 -0.043899518 0.20691602 -0.2259592 0.19458479 -1.593189 -0.96939176 0.5131133 0.2644496 0.23963611 -0.319839 -0.7666677 0.069080785 0.6444051 -1.4855276 0.24734521 0.37508082 -0.057311084 0.32514754 -0.31366017 -0.21365346 0.4852502 -0.8759949 0.019626522 -0.33172834 1.4411652 0.2547665 0.7022487
2649 0.110692024 0.81600755 0.16164587 0.018247735 -0.54680395 -0.26080632 0.65643483 -0.14422634 -0.4075639 0.36455342 -0.71170956 0.053060587 -1.3221053 -0.07781528 0.007603294 1.0464237 -0.5361408 0.050672587 -0.6095867 0.9613435 0.47467917 0.7560988 -0.037707 0.025726551 -0.66301197 -0.3800193 -0.21266297 -0.27583277 1.0417092 0.62520725 0.7298445 0.09205161 -0.88619477 -0.30806524 -0.24782209 -0.2624868 0.054473624 -1.0679593 -0.051350392 0.9094787 0.24417354 -0.6186683 -0.4084367 0.14415142 -0.119609885 -0.13011205 -0.90065897 0.25018933 0.21825078 0.59846103 -1.2003753 -0.2263699 -0.5441905 -0.6735489 -0.203791 0.28782183 0.23673968 -0.5893522 -0.26284838 -0.4807841 0.2348875 0.57325673 0.5962882 1.0051057
1241 0.9583445 -0.09721852 0.19310422 0.32352832 0.7426045 -0.72559875 0.013453874 0.48932168 -0.6981002 0.41127527 -0.72328854 -1.1430779 -0.46362895 -0.34938547 0.5824692 1.5421491 -0.14573283 -0.34805378 0.14559758 0.6880198 0.6139111 0.44954413 -0.72120845 -0.089792155 0.43691945 0.13815121 0.13031837 0.29215682 0.46010205 0.9031373 0.65678823 -0.46586782 -0.5884832 -0.6605291 -1.1614532 0.2719311 0.7947253 0.20933726 -0.81844693 0.8906941 0.92147535 -0.44488978 -0.12363018 0.032197632 0.58069116 0.4183178 -0.89955693 -0.53159904 0.6713319 0.7802402 -0.84166884 0.052766345 0.74354124 0.99175715 0.102800906 0.08822401 -0.07907089 0.035507303 -0.47068 -0.15866137 -0.52568877 0.003958985 -0.03632053 -0.61846703
969 0.85886455 -0.9368882 0.99756247 0.42646247 0.45409113 1.0227033 0.24944961 -0.016367625 -0.62648064 -0.14467677 0.124939576 -0.206524 0.01827225 -0.70440674 -1.0748858 1.5426873 -0.61555713 -0.20756488 -0.054936677 0.80249333 0.5480558 0.43466341 -0.6682746 -0.39611712 -0.18504341 0.16234264 -1.0606093 0.53056335 0.8682916 0.25650254 0.31910896 0.5475337 -0.61113775 -0.5766728 -0.41204816 0.29817793 -0.46263477 -0.19407117 -0.20075017 0.21358772 1.0158561 -0.6458188 0.08797095 -0.31493753 1.1231159 -1.0250056 0.06508494 -0.8222721 0.3137567 -0.33938432 -0.33419275 -0.85016876 -0.1942363 -0.5531252 0.62014943 -0.45262107 -0.45537004 -0.2455337 0.05941117 -0.3360322 -0.8462474 0.40436313 -0.46296802 0.61504227
3027 0.362854 -0.9611156 -0.06920314 0.8516604 0.83036005 0.22684109 0.07501765 -0.13776326 -0.31589878 -0.7669522 -0.4442141 -0.885679 -0.31583318 -0.6084483 0.24574952 0.88425744 -0.3724959 0.1827073 -0.03231313 0.16602091 1.0531945 0.6849077 -0.43026584 -0.05122201 0.55719835 -0.27373886 0.029153438 -0.017077088 0.32855904 1.1903639 0.0145462565 -0.119976856 -0.24210076 -0.2607547 0.23544194 -0.34107545 0.2648096 -0.3073701 -0.033051986 0.48935446 -0.3549246 0.28749794 -0.7388207 1.2482177 1.9721208 0.10775138 -0.06269361 -0.4293194 -0.30230677 0.24092974 -0.48734337 -0.6382705 0.33640906 -0.18623365 0.3130443 -0.1444492 0.3860209 -0.54107964 -0.83502877 -0.08060137 0.013306287 0.56436 0.5506557 -0.3196853
2525 0.3905261 -0.48970267 0.4508339 0.61195946 0.19178727 0.8202641 0.34333903 -0.46804735 -0.6457423 0.5840482 -0.17718229 -0.49906418 -0.8273654 -0.22812128 0.12742533 0.7659186 -0.05933003 -0.3302419 -0.019347457 0.4714938 0.26096174 0.0668519 0.37139168 -0.30510977 0.3487361 0.10778611 0.50752026 -0.306009 0.4382728 0.017280407 0.9705579 0.17386363 -1.450492 -0.7119708 -1.413769 0.40788755 -0.5310042 -0.9242531 -0.74170786 0.33553293 -0.003209762 0.5704243 -0.27677628 -0.19212544 0.024245072 -0.5129249 -0.9732604 -1.0914581 0.47731575 0.036156997 -0.1942638 -0.9671816 0.8904162 0.028076628 0.049164608 -0.014279734 0.072160974 0.44330466 -1.1286043 0.41712883 0.2382352 -0.048978053 0.738865 1.6475942
1252 0.42661974 0.13801488 0.7905034 0.1068858 -0.2780741 -0.33437538 0.153876 -0.5616742 -0.6405354 -0.121289 0.16701388 -0.6995608 -0.0403819 -0.46772948 0.61324733 0.7997733 0.036944363 -0.34878325 0.24107593 0.55552167 0.6255834 0.44676661 -0.51102144 -1.065737 0.35833374 -0.37319735 -0.41886005 0.019740108 0.9405072 -0.5286858 0.69839257 0.8314796 -1.2167549 0.24235463 -1.1786163 0.8897905 -0.5024982 -0.5079145 -0.6689436 1.0080854 -0.56713665 -0.09167783 0.3010958 -0.21508719 0.5851828 -0.3615642 -0.5570866 -0.54391795 0.14965452 1.0058361 -0.32801563 0.16610922 0.26108465 -0.5018626 0.19006644 -0.2256815 -0.008654643 0.2740085 -0.33225927 -0.43460488 -0.30649766 1.0340066 -0.40519944 -0.5863908
1936 1.2580091 -0.82343864 0.76795375 0.063427754 1.3421282 0.06884309 -0.063221134 1.1266448 -0.58777344 -1.0806767 0.20800973 -0.15949911 -0.5811389 -0.095496215 0.038980994 1.3305238 0.4274465 -0.6422796 -0.54114425 0.6886569 0.57556635 0.1071842 -0.8845431 -0.58538646 -1.0965011 0.04460372 0.15948924 -1.0211886 0.08681272 0.34209728 0.4572052 0.26472154 -0.039729163 -0.4664628 -0.8637609 0.77615416 0.25428984 -0.711622 -0.21884777 0.5119884 0.35247874 -0.50534564 -0.21213694 0.7057704 1.1005511 -0.2623221 -0.87907964 -0.5037233 -0.05272286 -0.15977237 -1.4464482 -0.39684817 0.046534903 0.47960135 0.36451924 -0.8531076 0.47046003 0.7004543 -0.57635826 -0.71214485 0.6514393 0.88351464 -0.60422546 1.1061844
1937 1.30267 -0.7500623 0.72833955 0.059202798 1.3250234 0.05160823 -0.009923045 1.122516 -0.54776514 -1.0247847 0.16339251 -0.20203198 -0.5750256 -0.041729245 0.069181964 1.3071144 0.36948907 -0.6526995 -0.55721855 0.6880345 0.5779507 0.112003185 -0.8678483 -0.545794 -1.1076316 0.061180595 0.16454764 -0.9552508 0.12323096 0.37705243 0.4470715 0.2437507 -0.08190403 -0.39686015 -0.8346256 0.740025 0.24042772 -0.68582135 -0.21937938 0.5042525 0.2964591 -0.43439448 -0.26174486 0.7106542 1.0941583 -0.28139895 -0.90182143 -0.48549962 -0.08940594 -0.1329365 -1.4061688 -0.42375043 0.13082266 0.562238 0.37277368 -0.84693724 0.48129824 0.70377016 -0.61037546 -0.67842966 0.61781645 0.8590127 -0.57802933 1.0845042
1204 -0.23127526 -0.70898116 0.27902907 0.7835106 -0.45369777 -0.6722635 -0.2874142 -0.27645087 -0.42711166 0.13804303 -0.26181373 0.35967436 -0.017822258 -0.12749544 -0.03310801 -0.014389444 -0.5897455 -0.8678859 0.62158924 0.016244259 0.79752797 0.30660394 -0.5220234 -0.37096786 0.043992437 0.1572666 -0.32441077 0.17285687 -0.032317687 0.55274904 0.31017447 -0.41416082 -0.6930868 -0.14285558 -0.09462255 0.26336437 0.3371683 -1.7028279 -0.6731531 0.4365069 -0.40644017 -0.29098836 -0.32857868 0.34305578 1.4542998 0.7066383 -0.38011277 -0.23357631 0.49384353 0.56524336 -1.2846682 0.010728885 -0.7777935 -0.18438487 0.6961239 -0.25355265 -0.16117509 0.028698523 -0.8911118 0.8359581 -0.22630063 1.4018002 0.73325384 0.9944882
737 0.46001643 -0.31609735 -0.012957398 1.3403897 0.005866026 -0.45105445 -0.022705834 0.5009813 -1.2959213 0.07487734 -0.709873 -0.8784267 -0.4692531 0.41114143 0.5724891 0.61453974 -1.0512843 -0.7599513 -0.05345687 1.0588837 0.59966594 0.13180888 -0.32061782 -0.36686417 -0.7621628 0.66125554 -0.3930045 0.85623175 1.0628773 0.69578046 -0.46301994 0.20398253 -0.9099188 -0.07388726 0.03564075 0.72298765 0.046605997 -1.1349112 -0.5937423 0.082705155 0.45759627 0.4350778 0.19554272 1.2176856 0.39048702 0.17355871 0.1562634 0.08847527 0.62515235 0.580563 -0.40142402 -0.22417848 0.12660424 -0.6176775 -0.04187359 -0.6695833 0.4762135 -0.12775904 -0.84579074 0.3038301 -0.26237097 0.3826747 0.2632843 -0.0005630726
2460 -0.26815808 0.19626905 0.08584706 -0.16555087 0.53072417 0.018610321 0.2325572 -0.7390499 -0.38585562 -0.93495774 0.22451021 -0.30786115 -0.13435256 -0.8655853 -0.26865986 1.5544894 -0.2743448 0.53793186 0.14919156 0.42085713 0.11211175 0.61504054 0.44102886 -0.034342855 -0.07739485 0.2863893 -0.16444707 -0.5658132 0.42832893 0.31668487 0.6421289 0.83730096 -0.92575574 -1.1461006 -0.19460043 0.5298596 -0.67631227 -1.3671986 0.17449088 0.17012902 -0.06685265 0.37562957 -0.20280272 -0.40547854 1.2418303 0.8627216 -1.017327 -0.6553745 0.49939746 -0.38311988 -0.82197994 -0.07948335 0.97764367 0.26806948 0.76049864 0.28643698 -0.61003685 -0.006622945 -1.2862805 0.43035895 -0.5603784 0.3208926 0.5304663 -0.083619356
526 1.3724422 -0.033347923 1.0679938 0.32828227 -0.24438857 0.33579695 -0.14717941 -0.7272386 -0.41281307 -0.68767345 -0.10278024 -0.11237219 -0.55675405 -0.8312627 -0.1363043 1.0141522 -0.16312164 -0.12912022 -0.90457577 0.8328918 0.47408327 0.56154054 0.56591886 0.16080089 -0.8507795 -0.8685723 -0.5150876 -0.03464591 -0.18322726 0.11730031 1.2010729 0.26048928 -0.98650366 -0.4163105 -1.173307 -0.09481084 1.1902328 -0.35822332 0.31422666 0.5012954 0.9265813 -0.8531366 0.64272547 -0.35184973 0.78623396 -0.24839932 0.30933002 -0.62599826 0.18638596 0.6297221 -0.4167574 -1.6195902 -0.05140145 -0.07093653 -0.7813669 0.5464594 -0.44358996 0.0544411 -1.0907322 0.94896907 -0.32534188 1.0778682 -0.33299047 0.53872085
458 0.33742282 -0.8765264 0.5354753 0.51007813 0.19727238 -0.3626976 0.5423903 0.31177673 0.23950519 0.40068176 -0.1387972 -0.19919449 -0.7843125 -0.8636032 0.36785796 1.1408703 -0.14089692 -0.4140251 -0.5920938 0.061190046 0.6233655 1.2932354 0.41334236 0.5003337 0.32262963 0.115920894 -0.35903302 0.52287644 0.68621135 -0.573791 0.2162714 -0.1695357 -1.0221417 0.07110495 -0.11501633 1.1431781 -0.617817 0.18985093 0.12587129 0.7857321 0.6431504 -0.55718565 0.4364443 0.25420776 0.9812188 0.1279207 -0.13137473 -0.91908294 -0.12913828 0.89007616 0.009817109 -0.69242734 0.035723865 0.47894734 0.059426222 0.25651565 -0.010296603 -0.7081911 -0.35851696 0.12786955 -0.5837089 1.038804 0.68398416 0.146404
1089 0.533347 -1.5066997 -0.12119707 0.49670383 0.86572725 0.22125219 -0.69293857 0.87107456 0.4358404 -0.6202982 0.21174325 -0.017204165 -0.6653481 -0.14521864 0.09308857 0.9394706 -0.67546517 -0.27403885 -0.4404682 0.07318482 -0.28445455 1.087798 0.6994504 -0.41929668 0.5615501 0.043964263 0.41579536 0.08811457 1.2752302 0.8957983 0.5358225 0.19941786 -0.46652308 -0.35659608 -0.23511665 0.6542599 -0.5199238 -1.5380048 -0.9588656 1.0172719 -0.022849873 -0.9775469 -0.39874944 -0.37294447 1.5257193 -0.72485507 -0.78419924 -0.81449395 0.80614424 0.72955114 -1.4898487 -0.5820349 0.6069271 1.020441 -0.18631634 -0.3970681 -0.055959243 0.650205 -1.006407 0.33090174 -0.10639137 0.8352651 1.0765291 1.1471221
11 0.5260625 0.27356583 0.6992307 1.1375599 -0.1460461 0.56931233 0.21952045 0.58917916 0.13444264 0.46577743 -0.3248529 -0.7091287 -0.21983473 -0.05481341 0.058049023 0.71371216 -1.2010853 -0.7289934 -0.6577835 0.53158164 0.07402131 0.5859245 -1.0636984 0.5224209 -0.36537772 0.64304936 0.16351543 -0.058887795 0.15455253 0.16458303 0.4046392 0.28390878 -0.89514816 -0.7419606 -0.5848861 0.71102536 -0.5441625 -0.99866664 -0.13524881 0.20069537 -0.8140334 -0.75740397 0.07037198 0.4364241 0.938357 -0.1999352 -0.5862878 -0.37670335 -0.09326377 1.0117713 -0.39327225 -0.070231795 0.7341209 -0.59926474 -0.5199313 0.45291895 -0.024554992 0.33684438 -0.27385956 0.98892254 0.3628568 0.38734013 0.22491959 -0.027912347
548 0.29923016 0.059501216 1.2980584 0.07600952 0.44641402 -0.30353826 -0.12283552 -0.25509498 -0.24441727 -0.079501726 0.66202533 -1.1671947 -1.1102355 -0.3425195 -0.34766996 1.1554688 0.19308214 -0.009700531 -0.9149696 0.9154946 0.4194046 0.34400794 -0.34773794 0.86710584 -0.5148447 -0.97372407 0.18158099 0.14862126 -0.01897907 -0.2389686 0.8568539 -0.24495119 -1.8121021 -1.0199246 -0.4822613 0.4984124 0.08489707 -0.44522208 -0.3183014 -0.15922189 0.3390831 -0.088621475 0.13566752 0.03825472 0.6420137 0.38768327 -0.4611653 -0.12208459 -0.22131471 0.39533442 0.061712824 -0.44265786 0.09525529 0.10742875 0.90646833 -0.8233405 0.06736087 0.15153109 -0.08048544 -0.21438225 0.86241174 0.23668742 -0.29450613 -0.008826483
1311 0.5433295 -0.63823706 -0.0017359338 0.37301263 -0.34477076 -0.4676188 0.53992724 -0.27337915 -0.68091094 -0.049005084 -0.27980727 -0.5609553 -0.5384933 -0.33027306 0.4808397 1.0984939 -0.2891023 -0.35869265 -0.20717134 0.27207562 0.57095003 0.77195066 0.9800544 0.4820556 -0.2677776 -0.26683873 0.16633195 0.5900148 0.7096848 0.13106251 0.47709885 0.65819997 -1.1194379 -0.61078846 0.36138925 0.34793785 0.03641014 -0.08523673 -0.60439086 0.6474645 0.4483936 -0.7949881 -0.34708714 0.21098381 0.09386649 -0.6045534 -0.033138912 -0.5518699 -0.25706235 0.913929 0.31697738 -0.58159876 0.11662243 0.43118605 0.9896011 0.42900896 0.22121376 -0.59795713 -1.4605362 -0.39601624 -0.08918538 0.89129025 0.28364718 -0.3183414
1322 0.51959264 -1.1101898 1.2606946 0.1258175 -0.49083734 -0.63011295 0.5936225 0.52964365 -1.4226779 0.114036925 -0.8888066 -0.38979757 -0.62142766 -0.19459884 0.21395482 1.1831102 0.22693688 -0.79140973 0.7910908 0.8395199 0.56459254 -0.07924649 -1.1153303 0.23574276 -0.9742515 0.48056966 -0.44201443 0.50430036 1.4312428 0.40852362 0.15621217 0.42661402 -0.65885943 -0.048215736 -0.95307827 0.6882328 0.8754091 -1.142781 -0.87503546 0.3351763 -0.5024008 -0.7097213 -0.34560046 -0.64558685 0.64899826 -0.7209117 -1.0246733 -0.4321122 0.3186063 0.32935104 -0.80727655 -0.9737054 0.21263957 -0.2651975 0.47384953 0.77100503 -0.5090018 1.0150746 -0.66453075 -0.066005684 -0.7054845 0.12856238 0.8094156 0.281878
1912 -0.21632363 -0.6044374 0.8141531 -0.20261657 -0.67491627 -0.116568096 1.0548193 0.8536725 -0.8252027 -0.19234185 0.25853902 -0.47385344 0.40553078 -1.1184452 0.20301531 0.6385449 -0.7762668 -0.15476057 -0.46651372 0.37959498 -0.29634178 0.93835443 -0.6986384 -0.26143304 0.38437796 -0.36079505 -0.004094113 -0.35950482 1.2242378 0.31394085 0.54866815 0.6528105 -0.99489254 -0.43553674 -0.21922252 0.2334306 -0.0043474482 -0.7915377 -0.86243653 0.30080727 0.19173922 -0.40814102 -0.20592073 -0.74332505 0.99047863 1.1884521 -0.033223875 -0.43778986 0.70041245 0.9696671 -0.35492688 -0.42617857 -0.60577464 -0.038641702 0.3886683 0.10653567 1.2990894 -0.48756474 -0.3032187 0.40969363 0.19470422 0.33419147 0.93109727 0.5196815
1087 0.47624382 -1.5033253 -0.07770733 0.49710384 0.86386496 0.21410055 -0.7129178 0.88615566 0.42436332 -0.61675674 0.18559967 -0.06670832 -0.65180683 -0.12543061 0.03229915 0.9215642 -0.6438532 -0.2576138 -0.47587806 0.07746488 -0.28306407 1.1053058 0.6927273 -0.4253258 0.57180494 0.015177313 0.38243046 0.048539087 1.2687391 0.85745484 0.5393746 0.23391059 -0.476034 -0.31601548 -0.2676703 0.6420312 -0.48682833 -1.5597539 -0.97537446 1.0215392 -0.031748477 -0.92608553 -0.36434704 -0.40785992 1.4902894 -0.7298496 -0.8142563 -0.82339466 0.81899697 0.6872007 -1.4911073 -0.5702139 0.62219745 1.0455687 -0.20730774 -0.37469238 -0.067812316 0.6218149 -0.9844301 0.31591603 -0.13365315 0.8712455 1.0631459 1.1413653
680 1.4828359 0.3051888 0.7899529 0.3584423 -0.42891032 -0.96040684 0.1928855 -0.29899737 -0.9107391 -0.5177193 0.30518052 -0.40685424 -0.28997552 -0.7657311 0.30646813 0.9548078 -0.31604666 -0.05073793 0.05628117 1.326646 -0.046621587 -0.3572848 0.2810447 0.63148624 0.10067132 0.8809784 0.068870574 -0.02687476 0.5584046 -0.22206368 1.3906778 0.2803087 -1.9781632 -1.277831 -0.07108271 0.23987111 -0.35426795 -1.8667442 0.30309713 0.35748369 0.03028569 0.37258813 -0.9151349 0.43834937 1.7093515 -0.22253537 0.3844417 0.09149544 1.0960338 0.16959292 -0.2491516 -0.86321265 0.39641154 -0.9875709 -0.046780366 -0.3109006 0.2820629 0.22454329 -0.59658396 0.95976746 0.04330449 0.77563703 0.73961574 0.4667705
528 0.56274 -0.85030645 0.7438807 0.2585521 0.5592806 0.342934 0.10616681 -0.06516611 -0.6597257 -0.25517526 -0.07693715 -0.6652558 -0.622827 0.83888286 -0.8603354 0.98126453 -1.0537661 -0.07624796 -0.24430548 0.10422274 1.1541775 0.6636549 -0.4530554 0.5099081 -0.499638 -0.5236991 0.131974 -0.40167284 0.0012977907 0.2883809 0.44574127 0.6203688 -0.4915074 -1.3463771 0.49060374 0.06660855 0.30464613 -0.16757263 -0.841617 -0.87414086 0.2667559 -0.04211398 -1.271081 0.44953293 0.28238377 0.5457654 -1.1153697 -1.207213 0.49095684 0.44496402 -0.11599766 -0.23440908 -0.023452263 0.895302 0.106296174 -0.23258103 -0.3940893 -0.53785 -0.9593764 0.77382237 0.22867818 0.5097048 0.6882559 1.049043
517 0.37740308 -0.8928893 0.3512789 -0.1421608 0.5898264 0.52537096 -0.85860336 -0.27640176 -0.6968536 -0.04941015 0.7379099 -0.38478786 -1.0754901 0.11041786 -0.18561967 0.34774655 -0.055461504 -1.3799267 -0.16360629 0.36685503 0.6439976 0.13861579 -0.37951478 -0.34358206 -1.008212 -0.32270274 -0.6965089 -0.09869907 0.40183154 0.34931317 0.7247798 0.123841584 -0.61376715 -0.02898257 -0.6339751 0.21383312 0.3615629 -0.38535783 -0.76521873 0.43518567 0.51916784 0.034232304 -0.002249874 0.9652106 1.2495922 -0.16923943 -0.01753483 -0.8243818 0.2644668 0.61206114 0.055412658 -0.6112206 0.50220555 -0.4613675 -0.20371865 -0.46236938 1.0359547 -1.0501435 -0.3110871 0.29970682 -0.053421568 0.23628624 0.73563063 1.1051937
148 1.2446847 -0.10042795 1.0885298 0.26612186 -0.26445678 0.33492908 -0.06069457 -0.7371467 -0.4188802 -0.6088686 -0.110382415 0.003470992 -0.5681231 -0.7804747 -0.10084761 1.0249162 -0.23206681 -0.110526256 -0.84073174 0.74859697 0.45158666 0.5748277 0.49897012 0.14894673 -0.8228815 -0.86838865 -0.4894963 0.018126853 -0.06791159 0.17158936 1.1579342 0.24677439 -1.025448 -0.44402182 -1.1554315 -0.09909031 1.0985292 -0.4075056 0.2295979 0.49037924 0.91099006 -0.8944523 0.5768504 -0.30290526 0.80468243 -0.2025101 0.20351276 -0.6793177 0.16966392 0.65970045 -0.3596049 -1.5443674 -0.051378816 -0.1033926 -0.8220961 0.5560943 -0.45941675 0.043053195 -1.0939407 0.958488 -0.32570213 1.1402555 -0.33082634 0.4851094
1356 0.46547672 0.06722655 0.40881556 -0.18809544 0.25208348 -0.43897948 0.46627158 -0.7573825 -0.8481789 -0.028480796 0.2618682 -0.6913784 -0.28977165 -0.39055857 0.42508253 1.0432422 -0.15551952 0.5356563 0.038852297 0.27889183 -0.13213044 0.3214979 -0.5970414 -0.4678683 -0.41482806 -0.92514855 -0.16086851 0.42429015 0.9600011 0.5711025 1.079729 0.0783523 -0.35801697 -0.36933306 -0.10638214 0.51986057 0.76363534 -0.35490206 -0.03329949 0.3533118 -0.7556354 0.17619552 0.26286244 -0.076511934 1.049423 0.09448322 -0.84701055 0.35236076 1.025261 0.71736825 -0.37298295 -0.97954166 -0.39171782 -0.5650608 -0.4581582 -0.49694186 0.14662364 -0.3029474 -1.4824755 0.8391582 -0.7269007 0.08961794 0.1543921 0.6208242
1975 0.74340564 0.7081408 0.46764556 -0.13309532 -0.13765597 0.23567854 -0.47640276 0.38355866 -0.7102799 0.37802583 -0.37013143 -0.6162926 -0.55734855 -0.5305345 -0.13286729 0.67151076 -0.2839078 0.16292383 -0.60219455 0.52195424 -0.24717973 0.55966514 -0.062469095 0.41952014 -0.79326963 -1.0774423 -0.2713722 0.19659626 0.029543515 0.9548617 0.053118106 -0.19199447 -0.66006464 -1.2961524 -1.4961675 0.18552886 -0.50184137 -0.6781306 -0.98610777 0.42795435 0.87601733 -0.36768964 -0.3046051 0.24835692 0.023685949 0.14503668 -0.52095 -0.46827728 0.76186717 -0.10837378 -0.20445023 -0.0803376 -0.06950504 -0.13127953 0.04677718 -0.7867457 0.59678817 0.40500194 -0.35211328 0.8220115 -0.9518462 0.910767 1.1889117 0.11170759
481 0.21389335 -0.865241 0.45896855 -0.040520858 -0.36663407 0.3215293 -0.19714227 0.010013867 -0.4140769 -0.006728464 -0.3156174 -1.2474699 -0.39491248 -0.62352085 -0.88500106 0.314948 -0.25615028 0.0013227966 0.012421532 0.9559952 0.3454533 0.7514399 0.1751024 1.1241407 -0.10291936 0.41426423 -0.094134174 -0.07072534 0.51262665 0.61734015 0.25749445 -0.0841969 -0.11256247 -0.67412376 -1.0847911 0.20561181 0.095328435 -0.1815663 -1.3346561 0.84808373 1.1433994 -0.56057894 -0.13390361 0.2500512 0.8463929 0.008194628 -0.4659043 -0.33753902 -0.67100114 0.6359411 -0.5878548 -0.8224366 -0.30750686 -0.12433655 -0.37696406 -0.19563758 -0.9176553 0.06677075 -0.32378373 0.18947496 0.5313537 0.42178455 0.36148968 0.22315511
506 0.17297694 -0.7674183 -0.13915493 0.77774197 0.3295569 0.55552435 0.4164357 -0.5476227 -0.33676422 0.34347516 0.20400503 -0.37049124 -0.16821402 -0.6839934 0.028759185 0.7434325 0.18989849 -0.5816662 0.38729376 0.33808544 0.044507336 0.41427255 0.2380909 0.22636053 0.11174757 0.25070137 0.21320413 -0.7481676 0.2332054 0.29287046 0.7600119 -0.19749703 -1.8328584 -0.97078264 -1.300311 1.092218 -0.4924988 -1.1627934 -0.54562694 0.11204927 -0.3411795 0.39982155 0.08100546 -0.35313267 0.338675 -0.347098 -0.9481395 -1.0216007 0.34712556 -0.010002275 -0.3754513 -0.5275452 0.6168736 0.2513511 0.35884234 -0.41923243 -0.25518873 0.141239 -1.2377957 0.51030767 0.22988962 -0.12472332 0.54736674 0.7302425
1600 -0.31284904 0.0020597926 0.7598849 0.1350157 -0.057725865 -0.36001277 -0.48516873 -0.62673223 -0.9168853 0.57489085 0.074100524 -0.47824675 -0.106276184 0.3884097 -0.06662939 0.63212985 -0.75869614 0.12077869 0.18572833 0.58427584 0.7204936 0.85838103 -0.6358511 -0.6884777 0.20090304 -0.50138956 -0.6168032 0.98927313 0.45701697 0.34211725 1.1637897 0.10923852 -0.5613951 -0.71590805 -0.817303 1.0254948 0.36067194 0.033997506 -0.29995474 -0.781255 1.0705111 -0.06253536 -0.8836196 0.14696994 1.1963263 -0.17869389 -0.5359764 -1.1935363 0.49130657 0.5966541 0.2545381 -0.04055643 -0.07973217 -0.5477733 -0.3498285 -0.46797073 -0.3237929 0.5192263 -0.023290738 0.26182622 -0.11356968 0.18200222 0.204606 0.17800243
1384 0.700577 0.30750018 0.46203962 -0.3446622 0.4326893 -0.20678805 0.45399338 -0.64408493 -0.058190674 0.14267303 0.65240556 -0.69583213 0.1993185 -0.27006596 0.7649195 0.30477467 -0.50539345 -0.5405766 0.04791741 0.6331608 0.58982503 0.05179752 -0.49222502 0.54948235 -0.4637083 1.0717754 -0.84356135 0.27736443 0.50138426 0.23018734 0.56696457 0.8342745 -0.44047657 -0.021480912 -0.4260747 0.33381525 0.35950252 -1.218772 -0.7048099 0.41081542 0.6001458 -0.16552976 -0.8411948 -0.20838359 0.03393984 0.5597037 -0.83181447 -0.4810387 -0.28391334 0.050989375 -0.64820635 -0.9843517 -0.073237166 -0.82898617 0.13312452 -1.0369084 -0.14491768 0.07499241 -1.1986066 0.29799348 -0.6042385 0.6117611 0.57854915 -0.69514996
2373 0.1968993 -0.7347022 0.30758318 0.024638094 -0.2744443 0.5908434 -0.2735524 0.3125841 -0.3721269 -0.030515056 -0.92338467 -0.21660864 -0.13089232 -0.2213785 0.15321538 0.6941381 -0.8746313 -0.5794207 -0.5180396 0.20948048 0.7749878 0.5342506 -0.18568814 -0.1888574 -0.67424244 -0.43496236 0.72948337 0.6363604 0.87273884 0.5721657 0.9467099 -0.42986163 -1.1341815 -0.5823149 0.23740052 0.50622964 0.065410994 -1.1486566 0.30371892 0.70180696 0.7380567 -0.67120194 -0.35113445 0.26045197 0.90691566 0.5584402 -0.18571723 0.038929734 1.1028899 0.4176626 -0.77697825 -1.214934 0.6030778 0.08885677 -0.31740984 -0.2889455 -0.1699488 0.2436648 0.7265683 0.853091 -1.0343518 0.28596705 -0.020757535 0.39716312
501 0.49746802 -0.11277574 0.56349367 1.1528181 0.027356183 -0.14585897 -0.061060045 0.41874573 -0.99942595 -0.6556739 1.0320288 0.7971793 -0.7300065 -0.87369996 0.22544695 1.3506844 -0.68619686 -1.2224163 0.41824758 0.36930057 0.5007421 0.7818493 0.074409425 -0.41943765 -0.018497923 -0.29731914 -0.25384668 -0.07491805 0.13948673 1.1136115 0.7125829 0.30944338 -0.626711 -0.3692202 0.009291671 0.5157022 -0.3399571 -0.3599106 -0.16685513 0.13141824 -0.05008496 0.021070877 0.07618759 0.352054 0.33546054 -0.10431524 -0.39697307 0.049502693 0.611179 1.0030326 -0.33160424 -0.4076474 -0.57021874 0.35916525 -0.11187354 -0.60381645 -0.19779485 -0.563387 -0.27029884 -0.35364196 0.67123 0.6669188 -0.0025411486 0.41153777
992 0.24892153 0.18774492 1.605578 0.281244 0.24688731 0.77070034 -0.52555406 0.03203736 -0.7936026 -0.7484615 -0.6290396 -0.043585923 -0.3237685 -0.74937385 0.023281654 0.5775577 -0.651897 0.06439607 -1.1025227 1.407609 -0.39716133 0.29142955 -0.24529077 -0.29531157 -0.5204188 -0.37825665 -0.31023753 0.13555914 0.64944476 -0.12867448 0.47383654 0.35538933 -0.07246626 -0.60087705 -0.028913837 0.33769277 0.28500533 -0.41214943 0.40925056 0.2701658 0.6844065 -0.52989596 -0.3194029 0.5870552 1.6367956 0.8964299 -0.8056334 -0.22212443 -0.101800114 -0.1650244 -0.78878456 -0.66730046 0.4333412 -0.54808813 0.5341817 0.19107589 0.58520055 -0.75846666 0.2332948 -0.78661335 -0.24638046 -0.0034627644 0.63228774 -0.3364902
3026 0.37998405 -1.0729189 -0.15592521 0.82616156 0.63821757 0.29640454 0.06671562 -0.1171392 -0.2573081 -0.6905065 -0.52581507 -0.62661904 -0.178973 -0.6023576 0.37072593 1.0645945 -0.37196422 0.18245524 -0.16743365 0.22558945 0.92557055 0.6818617 -0.28039005 -0.20574135 0.50390106 -0.49785882 -0.1420844 -0.043604124 0.44704562 1.3774494 0.030755693 0.09464905 -0.26791033 -0.2504602 0.16558355 -0.09465352 0.35653806 -0.16039065 -0.016792165 0.7746597 -0.29401127 0.4330674 -0.6104657 1.2950572 2.0108361 -0.076124065 0.012549571 -0.25513288 -0.33225402 0.14263599 -0.51233035 -0.53121895 0.5455672 -0.08136013 0.26343665 -0.14907692 0.43474314 -0.2232272 -0.92906463 0.12838574 0.017818082 0.41969004 0.5275338 -0.3269255
1779 -1.0511498 0.77189946 0.49127254 0.7429743 -0.36559165 -0.20417404 -0.3532931 -0.13866007 -0.8078355 -0.5555973 0.23186463 0.12224751 -0.7498157 0.12949064 -0.10838649 -0.07658758 -0.15086019 -0.7912293 0.9515814 1.4958631 -0.6154193 1.3895432 -0.53769296 0.02340922 -0.48389 0.6176808 0.12078982 0.15888144 0.22138529 0.70436716 0.7000986 0.6671608 -1.3935721 -1.0294943 0.2318311 0.6705095 -0.65200216 -0.8630196 -0.6128131 0.22474551 0.9894686 -0.20661587 -0.60853547 -0.43775758 0.64239556 -0.03120861 -1.0037193 -1.0008655 -0.3342379 -0.6659147 -0.56681687 -1.189668 0.566446 -1.0440202 -0.7525281 -0.16253074 -0.11445628 0.5036066 -1.5262762 0.42499515 0.051864035 1.4617969 0.15195034 0.88260925
2484 -0.4851617 0.62756914 0.39501494 0.44717184 0.883447 0.16932884 0.6077295 -0.102623105 -0.10188666 -0.080231875 0.31903008 -1.0760664 -0.71451426 0.11291138 -0.33707693 1.3657618 -0.9822582 -0.8492284 -0.6351983 0.14935869 0.12812088 0.5281939 -0.54437536 -0.37717298 -0.51472926 -0.26486498 -0.6792585 -0.3541882 0.91060627 -0.29409838 0.3123722 -0.26493078 -1.7576792 0.106289186 -0.79669446 0.7792533 0.18212189 0.04369473 -0.77301407 1.3754508 0.25869516 -0.098035045 -0.17969844 0.3789239 0.55851066 0.65970594 0.49177012 -0.5307419 -0.07572393 0.4272298 -0.782489 -0.35740978 -1.118231 -0.4783774 0.09048937 -0.32906222 -0.09852317 -0.84405845 -1.6786479 -0.765834 -0.25249404 0.18133979 -0.012121595 -0.506881
1347 0.2527709 -0.8072912 0.21143693 0.083627075 -0.33535415 0.40778384 0.057749297 0.08240851 -0.1811549 0.09841735 -0.0357716 -1.1421561 -0.35717615 -0.5230385 -0.8759969 0.49889648 -0.21910718 -0.16555749 -0.12923943 0.74512607 0.62171865 0.8173617 -0.13360111 1.1742076 -0.30248037 0.35864058 0.09557276 -0.072147146 0.5737586 0.7610297 0.099704936 -0.011575217 -0.22569332 -0.65912724 -1.0546036 0.060109083 0.1339669 -0.079732776 -1.2813565 0.6962821 1.2630718 -0.4152558 -0.35579258 0.37644008 0.8059976 0.3667026 -0.3290559 -0.42196494 -0.7496765 0.4934385 -0.71721584 -0.84291893 -0.3618674 -0.20059061 -0.47206068 -0.07379338 -0.8868561 0.14452378 -0.22939909 0.24349725 0.61317 0.43411037 0.31386736 0.17897032
1610 -0.54125386 -0.808423 0.5762893 0.23489086 0.28876007 -0.7950358 0.04500747 0.26806155 -0.51014936 -0.85144573 -0.5043775 0.011001128 -0.24011378 -0.24349204 -0.6752571 1.3102857 -1.2983352 -0.21616666 -0.061759792 -0.509196 0.13730134 0.5941143 -0.72207636 0.41241586 0.36176553 -0.97852963 -0.08554725 -0.4319411 0.6278008 -0.12878183 0.60083973 0.40721056 -1.0281888 -0.1006296 -0.21389283 0.28506956 -0.06816888 -1.1132287 0.38108528 0.40510023 0.3263228 0.0010761437 -0.3365247 0.84667325 0.5145815 -0.0031450135 -1.1022992 -0.18930098 0.13948633 0.3030341 0.07897123 0.4773117 0.07443683 -0.58579016 -0.32326153 -0.15334173 -0.3015422 0.02002983 -0.3435609 0.5324425 -0.5113421 1.0253603 0.8883012 -0.27497506
1148 0.039991938 0.55404043 0.686782 -0.14472586 0.1318963 -0.86208 -0.33510485 0.24637064 -0.724717 0.027425684 -0.3119008 -1.0087826 0.20652243 0.04680517 -0.4427599 0.56835026 -0.44213983 0.24799116 -0.84621364 0.41075605 1.248292 0.5788781 -0.029753862 -0.8501976 -0.5371266 0.08674436 0.1237716 0.30687016 -0.41509822 0.376838 0.15717009 0.3575299 -1.4493965 -0.54547507 -0.25840667 -0.34913245 0.8226089 -1.1613556 -0.6876751 0.66476095 0.2510629 0.5501901 -0.2999351 0.0751691 0.82354426 -0.0940309 0.103422485 -0.35193402 -0.30763865 0.23250575 -0.05686112 -0.6177009 -0.050383847 -1.0104703 -0.38448828 0.30547833 -0.41766375 -0.042746186 -1.3039773 -0.35896578 0.06830097 0.6985023 0.22989713 0.44209418
2516 0.56798965 0.09106178 0.4353464 1.3082451 0.2851877 -0.3116299 -0.27040505 -0.30912933 -1.077517 0.6486908 -0.28098753 -0.15111655 -0.37133932 -0.21914545 -0.49960724 0.3098346 0.25929153 0.16892627 -0.10208013 1.8919768 0.12598138 0.98114806 0.07460444 -0.21335784 -1.1311834 -0.15116872 -0.20255949 -0.21743058 -0.35288528 1.1377156 0.07236034 1.0746212 -0.77373666 -0.060574085 -0.1927239 0.2912235 -0.076305516 -0.79747945 -0.3954845 -0.030363964 0.23108102 -0.024520794 -0.6419506 0.7403687 1.5044401 -0.5151639 -0.13803774 -0.229555 -0.5442868 0.8310193 -0.67213726 -0.5065015 -0.1125487 -0.33840182 0.33331862 -0.035474252 0.17981368 0.08464919 0.4152903 -0.0298399 0.2274781 1.360097 0.38725823 0.23155719
2671 0.81474304 -0.102079876 -0.2978933 1.1794267 -0.3289843 -0.53290695 -0.24402729 0.14908215 -1.244085 0.49290147 -0.46086264 -0.8108039 0.633005 0.20672648 -0.037098434 0.65949583 -0.5002207 0.21868986 -0.012710357 -0.15698789 -0.40593854 0.20762207 0.13985915 0.19332841 -0.13499844 -0.645626 0.2280508 -0.31196663 0.29386696 0.27490416 0.9583944 0.34469238 -0.7594415 -0.13314764 -0.5469178 0.86411846 0.4918681 -0.8835821 -0.12462432 -0.4755991 -0.022436874 -0.05451754 -0.9393679 -0.6433224 0.5821312 0.7339486 -1.0967878 -0.8529666 -0.3769435 0.24616891 -0.47366497 -0.5272693 -0.33705533 -0.6499846 0.2447784 -0.11581943 0.5217935 -0.3398569 -0.71544725 -0.11336641 -0.35630003 1.0048321 0.8105555 -0.28695777
1472 0.17263454 -0.05110832 0.70122695 0.6889673 -0.13767646 -0.79595125 -0.09177999 0.4664085 -0.54201263 -0.212678 -0.49211106 0.30446795 -0.18950802 -0.6113988 0.24342674 0.9182768 -0.22554559 -0.23501241 0.06325176 1.1666571 -0.095766015 0.59295636 -0.7322057 0.9644764 -0.1193556 -0.16689792 -0.34621033 0.6924167 0.8425247 0.12953386 -0.029710319 0.5505709 -0.9708605 -1.542348 -0.23864102 1.1820023 0.38023293 -0.6996264 0.46978924 0.24383707 0.6950044 -0.3178486 0.030639738 -0.5563483 0.45992538 0.6821278 0.40145198 -0.83680385 0.9625191 -0.034350026 -0.15829404 -0.00087863085 -0.26533926 -0.0981051 0.038397726 0.296045 -0.34937692 0.47605067 -1.2487329 -0.13014764 0.2518659 0.41366625 0.16269968 -0.49487728
2502 0.116920665 -0.11609721 0.8817132 1.1066777 1.6002007 -0.3353792 0.3933295 -0.5348221 -1.023423 -0.6463436 -0.07416174 -0.08436469 -0.37614518 -1.0580212 0.17806266 1.0720668 -0.67014205 -0.54039216 0.09194525 0.5489888 0.7356855 0.7520202 -0.7073353 0.3899184 0.87578034 -0.05249688 0.16294767 0.163443 -0.013760139 0.61070156 0.5782101 -0.21017593 -1.0034878 0.26008528 -0.3424565 -0.3419114 0.9722023 0.17658874 -0.19824213 -0.17782992 -0.45619982 0.243115 0.45293552 0.9941667 2.1125119 0.66061693 -0.12169845 -0.817995 0.023282455 0.40695062 -1.1609023 -1.0622847 0.08861343 -0.6691001 0.29447672 0.4902257 0.14685312 0.20796752 -0.61631864 0.4441071 -0.7544534 0.9006087 0.4049051 -0.17212985
756 0.3970149 -0.7803041 -0.1264213 0.32238397 -0.2284563 -0.7276329 -0.566319 -0.3138896 0.38427284 -0.41872278 -0.47627622 -0.6145392 0.04996657 -1.1419133 0.77740306 1.4079089 -0.5785931 -0.32012275 0.18367833 0.6002005 0.71988904 0.26058117 0.3764545 -0.013353952 0.02175997 -0.07306913 -0.46330142 -0.69590557 0.3269277 0.114318706 0.57628083 0.6824735 -1.3195356 -0.46268427 -0.48777935 -0.13560712 0.6230576 -0.21357054 -0.116240405 -0.43956774 0.05047342 -0.16285546 -0.5066641 -0.21453261 0.6444932 0.0436551 -0.9765367 0.015337415 1.1124153 0.7302637 -1.2270427 -0.6613979 -0.25614378 -0.18544102 0.0489532 -0.3616131 0.33557302 0.56972885 -0.056502454 0.7352564 0.5961029 0.5393865 -0.123238765 0.17494136
194 0.4092872 0.07126194 0.35084385 0.5633899 0.197667 0.011546037 -0.9532599 -0.5229641 0.38107103 -0.49712616 -0.17613554 0.12327638 -0.3897818 -0.030184766 -0.9185467 1.5714507 -0.22808309 -0.10879963 -1.1507818 0.82071877 0.38549745 0.8487846 0.0641044 0.5916494 -0.41577372 -0.8174664 0.3167216 0.2660293 1.1119231 -0.652461 -0.19712386 -0.06773435 -0.37333646 -0.14051916 -0.27348363 0.6460066 0.6759571 0.25397888 -0.68679655 0.3101969 0.19420268 0.69182986 -0.8163609 -0.05146669 0.8502546 -0.18224134 -1.1672608 -0.033322204 -0.062370863 -0.44110557 -0.9168476 -0.2089202 0.043681428 -0.08448681 -0.123367675 -0.2520956 -0.26565415 -0.48324254 -0.35814825 -0.036521867 0.3094098 1.3170874 0.73186445 0.73274356
1922 -0.35891053 -0.45840383 0.6999342 0.11505274 -0.6052891 -0.63862747 0.5144956 0.3636963 -1.2050732 -0.11149008 -0.24196611 -0.63861585 0.40203345 -0.8173625 -0.2731717 1.1499767 -1.0584146 -0.5939037 -0.6628369 0.8274841 0.18208976 0.8075719 -0.1484842 -0.09167621 0.23270528 -0.49457806 0.5196166 0.031466644 1.3604189 -0.04084636 -0.04473449 0.35669446 -0.97783285 -0.4185081 -1.1915778 0.032913987 -0.18365115 -0.81310374 -0.7171717 0.29304212 0.396413 -1.2874019 -0.101194255 0.03190958 1.2268955 1.0711232 0.3312614 0.0803491 0.62000346 0.979182 -0.33262286 -0.26963168 -0.35507014 -0.37176466 0.76491725 0.012105437 0.9348439 -0.07504152 0.000889631 0.40023205 0.7010986 0.30182213 1.1624953 0.36265454
317 0.23718496 -0.09839906 1.1832377 0.96653664 -0.9784113 -0.040293675 0.014125689 0.7771533 -1.160991 -0.020522228 -0.041529264 -1.0526567 -0.2872544 0.29696226 -0.613382 0.7302416 -0.32871553 -0.22583298 -0.31983933 -0.18328847 1.3382212 0.7139597 -0.6170261 0.25671345 -0.4043372 -0.45684493 0.30214107 -0.25952575 0.18756467 -0.043150403 0.12803514 0.29122922 -0.3240278 -0.76945055 -0.6947277 1.0801251 0.6508872 -0.47467116 -0.64237815 0.505532 0.11459537 0.105475016 -0.81573045 0.52651846 1.2841047 0.014271205 -0.65172714 0.720572 0.7364013 1.0559872 -1.5665013 -0.24482124 -0.43042657 -0.7513631 0.17078215 -0.72913086 0.31740007 -0.2578897 -0.43862894 0.11402715 0.20760266 0.6273093 0.02065738 -0.27685133
687 0.43922976 -0.44794378 0.4793803 0.359071 0.3896359 -0.5419134 -0.41405785 0.12773903 -0.32796702 -0.29147536 0.024485702 -1.0413624 -0.068891644 -0.096430674 0.049898993 1.0183297 -0.48964274 0.056088958 -0.61130506 0.49653164 0.9274445 0.30770853 -0.25324646 -0.80852437 -0.68155724 -0.05407028 -0.45145875 -0.5598979 0.69449914 0.57009304 0.66195756 1.1824355 -0.96798646 -0.83357835 -0.38963938 0.2721162 0.096730314 -0.6501713 -1.2445835 0.1947396 0.1780961 0.023635145 -0.8174152 0.31218997 0.33933663 0.0019528342 -1.2995226 0.18895893 0.42782497 -0.019896923 -0.079522714 -0.16244072 0.29655448 -0.2469061 -0.20851275 0.48201695 1.4733301 0.38268006 0.7564263 0.6230604 -0.0057766438 0.30498695 -0.1384997 0.32264248
2924 0.77599305 0.49764216 -0.25923663 0.28550643 0.09496246 -0.004761571 -0.0948015 -0.34823006 -0.32540268 0.038073964 0.38000995 -0.2796727 -1.2330544 -0.1025536 0.161254 0.9892637 -0.7646285 0.0039388184 0.63916624 -0.039188378 0.5334357 1.0053878 -0.9749802 0.7284205 -0.4224404 -0.39471334 -0.3190952 0.14057533 0.10133748 0.64552414 1.0065186 -0.12980533 -0.4997581 -0.86543065 0.26520082 0.5464862 0.07580447 -1.6126783 -0.35083842 0.28217274 -0.46025258 0.88974655 -0.070481226 -0.4233293 -0.10949414 -0.2609019 -0.7296522 -0.899989 -0.18385617 0.3858977 -0.06864104 -0.25544938 0.6094587 -0.21264382 0.034729306 -0.108603686 0.41596636 0.07071295 -0.7552925 0.53524417 -0.34208032 1.9971111 0.3948726 0.49014914
2540 0.019482564 -0.4793417 0.71129566 0.5484255 0.114871524 0.08466337 0.50207907 0.32270005 -0.08292674 -0.034190197 0.28711373 -0.32854456 -0.5724171 -0.5647473 0.42291653 1.366293 -0.33622512 0.4029272 0.13195701 0.3590082 -0.21465689 0.8197206 -0.83594584 -0.4340992 -1.1051532 0.81740475 -0.048421353 -0.016287055 0.4884139 0.5652972 0.41796762 0.16046402 -0.7830483 -0.112466656 0.11941993 -0.477192 -0.2947795 0.18087634 -0.42885184 0.69500005 -0.039741978 0.00030981092 -0.10014518 -0.40751034 1.5863129 -0.27766198 -1.4071822 -1.5811148 0.69360876 -0.13246664 -0.02690863 -1.0115361 1.0996132 0.09005166 0.65316474 0.4557389 0.3912151 0.4969125 -0.53223866 0.033979323 -0.7306204 1.1743336 -0.0882259 -0.2423696
1031 0.33660397 -0.57671136 -0.06892607 0.5006222 1.052712 -0.9210397 0.31530452 0.65278673 0.0145743815 0.58921105 -0.03783247 -0.39831707 -0.06703638 0.4341611 0.28110275 0.6187659 -0.773374 -0.4845077 0.14847235 0.5664145 0.984359 0.5328036 -0.41180193 -0.16162153 -1.1077985 -0.42350176 0.516596 -0.58770853 1.097939 -0.35173538 0.3290654 -0.033332452 -0.5402091 -0.5289001 -0.92080945 0.6254077 0.6757045 -1.0806574 0.013686634 1.5322739 1.0162162 -0.36350697 -0.616019 0.57006675 0.23474142 -0.44339556 0.7297304 -0.6004575 -0.19703317 0.6819887 -0.67181003 -0.15118265 0.40131167 0.17402211 -0.8047448 -0.28015924 -0.31067774 0.62115824 -1.079916 -0.015407726 -0.69846225 1.4842333 0.41549212 0.060237877
1800 0.8200219 -0.36564443 1.3679594 0.9963861 0.16133924 -0.08541752 -0.8950077 -0.49429828 -0.6332716 0.6804178 -0.50388414 0.1342214 0.6313415 0.2039785 -0.5439724 0.043367717 -0.4238472 -0.1488617 0.35610643 0.9123262 0.40250242 0.39207134 -0.38686237 -0.29131538 -0.20707707 0.10872937 -0.47189265 0.8268901 0.5231714 0.026888873 0.55860674 -0.060309116 -1.0591122 -0.99769056 -0.14404082 0.87776166 0.44452634 -0.67942166 -1.2286727 0.83188134 -0.10309911 0.45886102 0.71896917 0.33015513 0.47055057 0.7383841 -1.2946612 -0.2854886 -0.6163462 0.025831 0.07198629 -0.18011291 -0.16639303 -0.49439004 -0.5366516 -0.2518957 0.380489 -0.9580207 -0.26167634 0.011452083 -0.20865084 0.5732104 0.48913962 0.46835628
1144 0.749358 0.09481146 -0.52597123 0.8254926 0.30215228 0.472589 -0.11540979 -0.52794296 -0.4028281 -0.10082176 0.29066277 -0.73530716 -0.817774 -0.72891164 0.07855021 0.5655104 -0.92370284 -0.30053222 0.097272396 0.21819788 -0.106647074 -0.54166037 -0.14664899 -0.124515966 -0.62049884 -0.57111806 -0.03347072 0.78786635 0.6305424 0.40296304 0.7985282 0.82968813 -1.0738215 -0.24435054 -0.5102596 0.36487886 -0.91955113 -0.08974712 0.5443723 -0.2208842 -0.044460706 -0.09459371 0.019693125 0.16699645 1.1932962 -0.24534148 -0.42249602 0.28051883 -0.44403067 0.46152362 -0.8393368 -0.3788709 0.4730368 -0.40552297 0.7481818 -0.24994348 0.44839713 0.3295968 -0.5707931 -0.3503364 -0.528265 0.7213336 0.964635 0.6207533
546 0.38714993 -0.9137217 -0.17065053 0.6538458 0.5587601 0.2685183 0.056731865 -0.09050266 -0.27039912 -0.78245765 -0.5269217 -0.6432998 -0.12176393 -0.48838112 0.36085385 0.9786921 -0.37563705 -0.017599614 -0.048514526 0.11189575 0.9983386 0.766387 -0.42919886 -0.32008994 0.5391907 -0.5065042 -0.057876244 -0.0865893 0.26285034 1.2231177 0.058063164 0.033773627 -0.21246381 -0.24261208 0.26041153 -0.13791037 0.19506373 -0.18472667 -0.2058262 0.7219135 -0.29277444 0.41851184 -0.6832618 1.1855427 2.0022805 -0.099114224 -0.015853731 -0.20027106 -0.2416392 -0.017809685 -0.617353 -0.6628752 0.4720901 -0.21582912 0.1482877 -0.18179792 0.40623936 -0.3874573 -0.9323086 0.08817863 -0.1511268 0.5280045 0.58932614 -0.42851466
1670 -0.5637537 -0.66425556 0.0376073 -0.090305276 -0.052003924 -0.06573192 -0.43585595 -0.37380123 -0.43703634 -0.48182207 -0.090070836 -0.7360497 -0.29192963 0.17625013 0.8140508 1.5301689 -0.56354713 0.21592027 0.67311853 1.234631 0.7495705 0.73535424 -1.3618653 0.09714383 -0.06204118 0.17433608 0.6325134 -0.40773985 0.25807032 -0.967667 0.22626285 0.52111006 -0.3401206 -0.266535 -0.91116273 0.62965226 -0.28893492 0.4641597 -0.4461295 0.20537467 1.1385131 -0.8661365 -0.98964554 1.0284303 1.6279241 -0.36877996 -1.240001 -0.68850386 0.49848902 0.42732105 -0.7171285 -1.5987002 -1.0893005 0.004477926 -0.02251045 -0.11903786 -0.016299956 -0.5969896 -0.5264833 0.10192514 -0.67305136 1.6315194 0.12672684 -0.30171347
1907 0.5801239 0.37391084 0.9245764 0.06999463 -0.18352678 -0.44446367 0.00833649 -0.6589962 -0.51232564 -0.042390138 0.1964022 -0.7453294 -0.16424641 -0.27561066 0.6953167 1.1822239 0.3238609 -0.3699969 0.31835532 0.60989517 0.6509892 0.48722875 -0.5139429 -0.9109137 0.11768979 -0.32181442 -0.30802178 0.13133493 0.5639341 -0.4663013 0.5262638 0.646639 -1.3756132 0.25372335 -1.0611707 1.1083078 -0.5788444 -0.51435715 -0.68539435 1.0308434 -0.6900475 -0.0886324 0.1746737 0.03445347 0.5382933 -0.5512315 -0.7420914 -0.465083 0.11120302 1.0003611 -0.17256883 0.3007092 0.55161947 -0.48503017 -0.015893599 -0.31727225 -0.122415334 0.1749734 -0.46810493 -0.30214962 -0.50571907 1.0577554 -0.5027587 -0.52407277
2948 0.9460151 -0.24018306 0.5388513 0.4293383 0.36214566 0.21634074 -0.9774825 -0.32034177 -0.9799331 0.15649614 0.1352181 -0.098317094 -0.8393814 -0.45840627 0.34043172 0.59066206 -0.6710486 0.62630546 -0.7609615 0.7059287 0.3313231 0.20805146 -0.44832078 0.2743263 -0.24565169 0.42751563 0.28268385 -0.54240924 0.4118361 0.22958422 -0.66080576 0.42199016 -1.1817039 -0.08899205 -0.11446636 0.45925763 0.29691422 -0.39894247 -0.3604759 0.12724887 0.66921467 -0.100747384 -1.1620814 0.37530488 0.6078958 -0.1972253 0.19810712 -1.1002551 0.7206732 -0.29977113 -0.97291505 -0.58225256 -0.2738618 -0.39588186 -1.1755662 0.3058613 0.23394838 -0.0126766395 -0.5567007 0.8634163 -0.13788073 0.22660126 0.89941543 0.5517528
3169 -0.35742626 -0.44556794 1.733806 0.39246485 -0.1070343 0.53068894 0.39316505 -0.53624403 -0.7036406 -0.22381932 0.29631174 -0.668539 -0.46122766 0.20443887 0.6443461 1.152975 -0.29971528 -0.26824248 -0.44022593 0.9189829 0.40549842 0.6466217 -0.013033226 0.10620193 -0.6260569 -0.84490025 0.39674217 -0.022356233 0.40181917 0.23267241 0.1845923 0.70706755 -1.4446255 -1.4686319 0.001531509 0.26062542 -0.39659622 -0.29542658 -0.08448674 0.07119406 0.43359795 0.21066667 -0.3283095 -0.09590124 0.6408491 -0.14012815 -0.7676355 0.28320032 0.18430261 0.14017075 0.23198332 0.04197443 0.25844964 1.158719 -0.050034992 -0.95935816 -0.10466605 0.2883325 -0.022532705 0.77635217 0.013040303 1.3762428 0.32245106 0.4735176
2544 -0.25077093 -0.18451566 -0.21453917 0.3717784 -0.09441147 0.5388569 0.006971418 -0.09796588 -0.31654578 -0.62969464 -0.07111035 -0.023297513 -0.764207 -0.27382943 -0.19863056 1.5228865 -0.13363053 1.0713798 -0.25238273 0.66913193 0.098111704 0.9035919 -0.38230652 -0.30077595 -0.9692563 0.24063286 0.25600687 -0.13354349 0.339516 0.64927465 0.6257455 0.32633722 -0.71146303 -0.07220474 -0.036724173 -0.35131025 -0.45870537 -0.5578266 -0.41018894 0.5084478 0.526341 0.2369812 -0.4217297 -0.2625346 0.9541686 -0.34452042 -1.2895976 -1.439231 0.5393046 0.45195824 -0.9489693 -0.08278657 0.72300017 0.0060280818 0.35449696 0.75516987 -0.16180152 0.42836753 -1.0209911 -0.03180028 -0.53222835 0.38036203 -0.30151653 -0.34563887
2458 -0.13617885 -0.49492607 0.39330748 0.4548648 0.5005539 0.23146161 -0.11443752 -0.2408203 0.11221166 -0.059603885 -0.5176115 0.18737847 -1.0214006 -0.39065394 0.108784914 0.59605324 0.38243753 -0.22289598 0.30248415 0.6766338 0.7097662 0.28461507 0.0003193368 0.16799417 -1.5876564 -0.1580273 0.1424229 0.77734935 0.31089523 0.18359776 0.58073664 -0.39717025 -0.86811477 -0.6028105 0.026344543 0.52287203 -0.116345964 -0.42704543 -0.7767997 0.5442341 0.5412694 -0.91053313 -0.08798337 0.13204521 0.58742195 -0.13416234 0.2908257 -0.99367857 -0.20279625 -1.0543637 -1.374466 -0.8476899 0.1294163 0.01797977 0.8384803 -0.47307733 0.15338935 0.40719718 -0.8595334 0.092684895 -0.03860847 0.56408924 0.9983012 0.6694177
2465 -0.36972353 -0.22188364 -0.048625644 -0.19946505 -0.2219126 0.37567085 -0.081147164 0.43569422 -0.3481757 -0.041374717 0.062076714 -0.33043346 -0.5796664 0.03223246 0.24638678 1.0895593 -0.7790799 -0.4098925 0.11609302 -0.2576238 0.1832259 0.08949838 0.6103511 -0.43477288 -0.14810055 -0.7073046 0.15560804 -1.0584644 0.55550426 1.5446403 0.47239214 -0.7048971 -1.1039897 0.031465333 -0.42901397 0.46288562 0.783069 -0.06183178 -0.762743 0.46188885 0.864009 -0.061384536 -0.42442974 -0.121315606 1.3146086 0.70287544 -1.1610323 -0.26046634 -0.24653168 0.16297352 -0.3141042 -0.47452736 -0.11819544 0.5259853 0.20112324 0.32852548 0.37438607 -0.20254901 -1.6018869 -0.1299068 -0.34905568 0.9709844 -0.12452342 1.3531508
2215 0.4000763 0.47928375 0.05984393 0.08590949 0.0609458 -0.12554897 -0.37705535 -0.11740877 -0.1984152 -0.0046353205 -0.66757256 -0.32220173 -0.35375968 0.043312944 0.35249475 0.4950818 -1.262934 -1.4598396 -1.3053082 0.5113375 0.7021464 -0.083185755 0.5771485 0.036906406 0.05721864 -0.18883967 -0.39850038 -0.36170536 1.622182 0.9381774 0.01623906 0.48047268 -1.0474197 -1.1311513 -0.9220555 0.60598475 0.25880697 -0.97911465 0.3315072 0.16073853 0.3375612 0.48467594 -0.41492912 -0.21697757 1.132911 -0.012390939 -0.6891509 -1.2122898 -0.4540231 0.43291909 -0.04104648 -0.34284806 0.17008522 -0.25765464 -0.08420007 -0.30741936 -0.31162503 0.45658424 0.28307894 -1.0368638 0.27830526 1.0053812 0.09579579 -0.12927873
586 -0.18736303 -0.10930728 0.4927175 0.9087286 -0.5244155 -0.17502555 0.69775295 0.25874287 -0.103964075 -0.05971552 0.30382782 -0.20683338 -0.14777152 -0.9062213 0.0033757787 0.8232373 -0.44477722 0.13843605 0.36577094 0.63057494 0.009738319 -0.5927644 0.04234804 -0.05788269 -0.18359804 -0.30814028 -0.30366886 0.82101786 1.0394526 -0.41290364 0.65352356 -0.41875586 -1.601715 -0.7352431 -1.0540897 -0.67204183 0.6664462 -0.20896019 -0.26006553 0.631851 0.3103407 -0.7388003 -0.011981863 0.87008965 1.244664 -0.19529831 -1.2091793 -0.82916 -0.14686105 0.15064244 -0.5459437 0.07996494 -0.5219663 -0.21625803 0.12930459 -0.03556607 0.019487597 -0.120170385 -0.62476957 0.53355235 -0.4884693 0.19415839 0.16089249 0.36748448
2519 0.71043724 -0.27787492 0.51185936 1.1980894 0.058048546 -0.34222156 -0.006599257 -0.102148905 -1.0516533 0.72589815 -0.22263195 -0.0967981 -0.69284433 -0.15356259 -0.11541218 0.24174814 0.517411 0.15921007 0.38230136 1.762241 0.41334543 1.2645749 -0.16767082 -0.48541927 -0.5600182 -0.35888147 -0.028145846 -0.0126454765 -0.44379425 0.8258383 -0.18678157 0.71383476 -0.6949577 -0.2858226 -0.4849032 0.43710595 -0.21463165 -0.8478625 -0.43201238 -0.113964856 0.06492589 0.21818264 -0.5763202 0.62292945 1.0048245 -0.098244295 -0.5459739 -0.53555083 -0.7303772 1.1185207 -0.99074525 -0.6530039 -0.041739803 -0.63596755 0.39535037 0.2369853 0.37481984 0.33220762 -0.0137937665 0.11012257 0.42103288 0.6839001 0.3016196 0.2133933
1018 0.4368162 -1.0059813 -0.16330357 0.8423315 0.62773085 0.25453773 0.037459437 -0.18933696 -0.26954386 -0.7410921 -0.6045168 -0.8770028 -0.15132566 -0.5451651 0.35241368 0.8724395 -0.5338955 0.2932775 0.022746513 0.21337557 0.8952772 0.60592365 -0.40802738 -0.09721327 0.6112256 -0.29628256 -0.051989347 -0.071528174 0.25023755 1.3184947 -0.06964351 0.11205564 -0.28950906 -0.37919322 0.18050088 -0.20747624 0.042395234 -0.2433292 -0.014307233 0.86981475 -0.21502085 0.34690475 -0.685225 1.3347173 1.9152368 -0.08210117 -0.072362244 -0.40101773 -0.37951034 0.09459815 -0.54593426 -0.53756076 0.27178892 -0.17880093 0.20338522 -0.14531106 0.3705202 -0.37610754 -0.85951805 -0.08107455 -0.016558424 0.5316712 0.5451369 -0.4459104
156 0.3092836 -0.6678192 -0.22268446 0.6083575 0.5135035 -0.37347135 -0.3629068 0.14478675 0.63993144 -0.64254254 -0.42269012 -0.8391738 -0.8049274 -0.35465568 -0.23456182 0.375009 -0.51848495 0.09978338 -0.6209697 0.78620964 1.4034373 0.1492218 -1.2418382 0.055687856 -0.9239094 -0.5450343 -0.27215052 -0.099367194 0.41207612 -0.25020683 -0.26928908 0.12867261 -1.100652 -1.2450432 0.6123102 1.192999 -0.0066118785 -1.123804 -0.1134951 0.9319984 0.03931426 0.55785656 0.55475926 0.7003563 1.1547654 0.7923421 -0.36070207 0.1747745 0.26863143 0.11981641 -0.088518925 -0.5394291 -0.2855931 0.60647935 0.45148912 -0.5740249 -0.34516641 -0.3277474 -0.21391813 0.35573512 -0.166472 1.5681647 0.5224351 0.27935493
677 -0.017040381 0.055506986 -0.13501827 0.4804849 -0.2519976 -0.032746207 0.0138628865 0.1518863 -0.29390213 0.30094123 0.24825126 -0.4857611 -0.39629248 -0.49269482 -0.18668857 0.599891 -0.62893164 -0.49619007 0.055373978 0.0228056 0.62839764 -0.13784875 -0.10724913 0.07535091 0.3346378 -1.2598438 0.38002664 -0.61040676 -0.23156932 0.42362472 0.4480082 -0.36523136 -0.87945616 -0.20548372 -1.0359014 1.0664492 0.23822038 0.070375256 -0.23991345 1.012401 -0.21707533 -0.9608926 -0.0038000264 0.7166376 0.77731717 -0.6486667 -0.20312144 -1.5308096 0.24001037 0.047498826 -0.74362797 -1.1005867 0.33088076 -1.0688014 -0.11554473 -0.049028456 -0.00018830033 0.004882479 -0.040155537 -0.08205305 0.46936473 1.510829 0.67945784 0.5111879
1537 0.73996466 0.32009855 0.62986517 -0.40751472 -0.5128652 -0.16816533 -0.08997981 -0.31839105 -0.7433047 0.32563823 0.314264 -0.28989866 -0.4022306 0.21220803 0.2581854 0.16676605 -0.7661382 -0.7039296 0.20991485 0.07696565 0.15680185 -0.25836653 -0.12173031 0.7036331 -0.54184645 0.7897596 -0.77702296 0.50076485 0.14239524 0.10768855 0.49895233 0.5324801 -1.1033151 0.12663479 -0.3055263 0.67626274 0.62012106 -0.3284757 -0.5598228 0.038749084 0.6450166 0.49882352 -0.059510283 0.6561304 0.74073476 -0.42018312 -1.1999311 -0.42597362 0.5163158 -0.17747939 -1.3312758 -0.8615632 -0.4894351 -0.13661282 0.323434 -0.44643483 -0.28872633 -0.34186828 -0.28030673 -0.34899148 0.44882873 1.1931665 0.45608246 -0.08905569
2632 -0.21967213 0.05225298 0.25873506 0.3835369 -0.16874352 0.04024885 -0.051064678 0.10018651 -0.2934314 0.17243633 0.51232225 -0.7789897 0.18755378 -0.6132048 1.0060337 1.1681944 0.121573865 -0.20805775 -1.0412782 0.20798232 0.8898919 0.07315094 -1.3926113 0.13903202 -0.6581775 -0.20438403 -0.64812243 -0.15077578 0.83610094 0.20525526 0.6654211 0.037213497 -1.0926311 -0.82462144 -0.33552435 0.7136887 0.8682517 -0.3878186 -0.8727214 0.792225 -0.22387064 -0.54645324 0.06826413 0.60234034 1.2871331 -0.3499795 0.15007435 -1.0354916 0.5317195 -0.30468228 -0.26079136 -1.3784419 -0.74600047 0.29595834 -0.12557419 -0.56080693 -0.05042811 0.5068916 0.41033643 0.70281655 -0.25741822 0.779968 0.7422279 -0.4726858
1572 -0.5653985 -0.51866925 0.67828774 0.55721146 -0.024841761 0.36755678 -0.9598191 0.29362038 -1.0057603 -0.36887062 -0.35559356 -0.2644999 -0.20310187 0.29268092 0.9852623 1.079905 -0.23373403 -0.40616292 -0.85527194 0.05711726 0.32741794 -0.020621588 0.10393644 -0.12893078 -0.3750942 0.10452696 -0.59617144 0.53315043 -0.02006574 0.36064872 0.8924312 0.04828765 -0.8207177 -0.88495314 -0.7551143 0.40937167 -0.2983945 -0.19510897 -0.5586359 0.14760341 -0.53990334 0.30665052 -0.251961 0.66870004 -0.06785649 0.26269862 -0.38442445 -1.1555167 -0.40608808 0.005648252 -0.96835035 0.4453921 0.018832522 -0.12379208 -0.16344298 0.25232497 -0.015700093 -0.18100855 -1.1316651 0.22320256 0.018396439 1.155844 0.17861299 0.15013391
1794 -0.28108686 0.1944566 0.88712215 0.097726986 -0.33169234 -0.23912184 -0.4586952 -0.5916975 -0.9446883 0.50540274 0.019954303 -0.5312781 -0.19725464 0.49647883 -0.1978959 0.8042362 -0.5377465 0.24329114 0.19690399 0.35639158 0.476077 0.92569 -0.5654325 -0.5109599 0.19399478 -0.6115133 -0.5003549 1.052646 0.5515376 0.46196836 1.1230652 0.2314323 -0.7780052 -0.7972125 -0.7206678 0.9520529 0.27798566 0.040087517 -0.3772022 -0.8506805 1.0087981 -0.1319516 -1.0362242 0.31644446 1.2696245 -0.34352028 -0.480396 -1.2328826 0.39176914 0.32991624 0.28484806 -0.0741254 0.10780785 -0.6787082 -0.35277238 -0.41463804 -0.105284326 0.3330902 -0.1558675 0.21373324 -0.033519804 0.21622074 0.09924289 -0.022497889
120 0.5992204 -0.013275036 0.7284818 0.5489029 0.4710916 -0.5456196 -0.6798255 -0.8983157 0.26805332 0.46034414 -0.43698782 0.17280991 0.17378573 0.58296967 -0.96147346 0.8271474 -0.5028937 0.09480483 -0.45100597 1.1386694 0.31502876 0.8594379 -0.3666793 0.39367634 -0.39905122 -0.2131805 0.6364826 0.58776855 0.19917956 -0.51974344 0.47400627 0.11058337 -0.2858429 -0.4898636 -0.9444583 0.701536 -0.08775431 -0.59293103 -1.0012672 0.51075107 0.3698053 0.38359603 -0.21473458 -0.13394311 0.43247378 0.006445375 -1.1491382 -0.5124091 -0.012614138 -0.39940277 -0.70329154 0.3368339 0.3560661 0.17203614 -0.19421537 0.13247716 -0.078586176 -0.65016085 -0.24151814 -0.18810906 0.08083545 1.265622 0.24614581 0.6246329
1167 0.28575838 0.5901467 0.63272357 0.9618093 0.49389696 0.32328916 0.084459245 0.0866989 -0.38391352 -0.24561822 0.3158649 0.56572 -0.3890261 0.022003064 -0.048326876 1.1407362 -0.99773896 0.116809554 0.12581043 0.17497529 0.14078684 -0.016686367 -0.49400505 -0.10386167 -0.24939612 -0.6237405 0.37925842 0.014565247 -0.16530305 0.3535327 0.050584238 0.785891 -1.2635247 0.36399195 -0.76172966 0.90254873 0.26622513 -0.14271918 -0.79825854 0.38456962 0.4807929 -0.23890322 0.8656502 0.19961949 0.20192963 0.74170387 -1.6610298 -0.52856165 -0.20626006 -0.16701253 -0.6834914 -0.6614012 0.53181845 0.28964382 -0.1344084 -0.8667012 -0.020558089 1.0058464 -0.7090741 0.46377555 -0.17011173 0.36492616 0.3180454 0.07743557
1304 -0.11039002 -0.71544373 0.8580674 -0.133525 -0.6309116 -0.05654319 1.0515352 0.9473554 -0.7984597 -0.19487879 0.2796889 -0.45082417 0.43732622 -1.1623344 0.28045952 0.5982936 -0.804209 -0.13960709 -0.57147014 0.30774868 -0.2717933 0.87470627 -0.801163 -0.27157298 0.3516946 -0.40873358 -0.041444693 -0.3378773 1.2275437 0.31333375 0.54294854 0.6098618 -1.0004354 -0.44197705 -0.1380396 0.24888383 0.039787933 -0.71069527 -0.8798346 0.2180216 0.14944026 -0.36000237 -0.20248057 -0.7429925 1.0095168 1.176373 -0.019169053 -0.3936738 0.7739061 0.97032523 -0.32780558 -0.4482973 -0.6650054 -0.06147191 0.43074057 0.14584994 1.3940207 -0.50354075 -0.3401655 0.38818136 0.16681182 0.364434 0.9085686 0.5913187
203 0.4845251 0.010915733 1.2133914 0.36974087 0.55623466 0.569699 -0.3349624 -0.7923055 -0.71517396 -0.34557626 -0.72534156 0.43027413 0.4671608 -0.0799822 0.18505724 0.5254084 -0.019100219 -0.26536453 -1.0004834 0.08585349 -0.34167904 0.497997 -0.12829518 0.18373735 -0.72636867 0.12760955 -0.03887406 -0.09837978 0.35528407 0.43672347 0.2968181 -0.10028461 -0.14353639 -1.0849824 0.07047276 -0.04534674 -0.09277737 -0.45582515 0.20545849 0.9224803 1.0309854 0.0030579031 -0.16551392 -0.27991953 1.6716067 -0.042425573 -0.83908635 0.20571485 -0.37116683 0.93496233 -1.1134697 -0.1215738 -0.23058848 -0.7531742 0.23258294 0.42065984 0.6515904 -0.23782428 -1.0015278 0.39843553 -0.59837306 0.7779137 0.7586987 0.38943705
1077 1.1055874 -0.28366727 0.029287832 -0.22759531 -0.4752616 0.1744494 -0.38047314 0.05247076 -0.94265354 -0.60771227 -1.0504316 -0.20675312 0.21113984 0.20099181 0.5890545 1.0116999 -0.5226881 0.034718636 -0.6796047 0.009641687 0.33713344 0.85257316 -0.35209158 -0.36246026 -0.1714014 -0.0074026063 0.8772781 0.50864786 0.4922905 0.36054006 1.0427749 -0.0663358 -1.6912639 0.27500957 -0.038353186 0.6108681 0.0644938 -1.0228999 0.049683888 0.7283293 0.50654435 -0.19375663 -0.4076787 0.5103086 0.5637176 0.53988194 -0.7596344 -0.07884456 0.12497147 0.5193743 -0.1328655 -0.9542249 0.43428177 -0.5203927 0.81246245 -0.3525808 -0.041197177 0.3269831 0.40148777 0.19388884 -0.45198864 0.4879969 -0.5993323 0.7542879
2221 -0.16981024 -0.5112081 0.5796347 0.1828689 1.2183288 -0.08406026 -0.025705805 -0.55626523 -0.85629684 0.34985614 -0.004374633 -0.75124705 0.61051834 -0.40554294 -0.91103995 1.5280155 -0.6194571 -0.47846717 0.12837023 1.2790176 0.9129669 0.17078401 0.67049545 -0.026321057 0.17700769 -0.77748543 -0.8726869 0.1889091 0.62094176 0.7800172 0.95650065 -0.15718685 -1.4041176 0.43494877 0.05634871 0.9452743 -0.21403182 -0.29750866 -1.3898822 0.034276087 0.0020094644 0.69975 0.729906 0.54082566 0.50517917 0.2089455 -0.20638067 -0.5416495 -0.3967886 1.0171546 -0.7366722 -0.18386665 0.08103349 1.0008129 0.76579195 -0.90633005 0.5957615 0.15415773 -0.9982719 0.20287862 -0.5846755 0.9598707 0.19614917 0.1849886
1791 -0.14780319 -0.19248407 0.645098 0.025024252 -0.2358444 0.39404994 -0.039866008 -0.71174705 -0.54092354 0.33687174 -0.42593572 -0.7495243 0.05479482 -0.6325982 -0.22675833 1.6041003 -0.9932401 -0.9284617 0.39623296 -0.15259595 0.26454255 0.6602623 0.03971156 0.21455733 0.27736467 0.030911379 -0.008274141 0.49565953 0.5208455 -0.08738629 0.55716854 -1.0114458 -0.6162586 -0.31227013 0.057242837 0.4171415 -0.21422037 -0.41023952 -0.22114846 0.8946922 0.6199111 -0.3713637 -0.17680204 -0.4382224 0.5824932 0.7978316 -0.7339407 -1.481459 -0.72819704 0.14954966 -0.9423522 0.1219687 0.65649915 -1.136424 -0.33876276 -0.036970768 -0.0011343445 0.54094726 -1.4992677 0.047744174 -0.6065644 0.092101075 0.5232005 0.6242765
1192 0.74323 -0.039418798 0.36133814 -0.22645617 0.35252357 -0.27180776 0.33086962 -0.66587657 -0.69390494 0.002209319 0.19302638 -0.45843235 -0.38717073 -0.16975303 0.4322947 0.911124 -0.34599763 0.5259115 -0.066172875 0.20650773 -0.069458224 0.19696802 -0.7058729 -0.2770496 -0.32987314 -1.0287209 -0.28440562 0.38379952 0.7979995 0.51524836 0.9353061 0.17729929 -0.37330213 -0.47314036 0.11741202 0.4877395 0.88653404 -0.43612602 -0.17360412 0.2707043 -0.63365173 0.15677409 0.02076993 0.21065716 1.081268 0.048199944 -0.7534783 0.43826714 1.2307518 0.8420319 -0.43497518 -0.87135446 -0.448378 -0.57863504 -0.4250495 -0.55059266 0.14205797 -0.3798541 -1.4183155 0.9968285 -0.81812716 0.15269198 0.19177917 0.5661187
1757 0.0198337 0.6824079 0.4248344 0.39250877 0.6382611 -0.18912691 0.012688647 -0.4948693 -0.36398315 -0.8517248 -0.5328648 -0.3624861 -0.23942344 -0.29474506 -0.1538482 0.81439626 -0.20142853 -0.11945939 0.30411166 0.24144574 0.08220266 -0.43800765 -1.0058905 -0.62296647 -0.094583936 -0.37696284 -0.112598 -0.78346586 -0.5863829 0.6101549 0.7640003 0.21922266 -0.8023167 -1.8736578 -0.30528185 0.26180238 -0.3415824 -0.64370537 0.34426796 0.18662956 -0.013568675 -0.043834087 -0.42248282 0.39668858 1.211737 0.73099566 -0.57730764 -0.46473634 -0.054917473 0.8463092 -0.45108032 -0.57590514 0.056745894 -0.42761695 -0.8797444 -0.56379807 0.13372289 -0.07927958 -0.43487313 0.013040809 0.28224427 1.0918486 -0.7030868 0.41545662
836 0.16455398 0.6093998 0.2552334 0.0021969562 -0.45320693 0.011547921 0.4920083 -0.06581576 -0.36293888 0.5651061 -0.7877884 -0.04605737 -1.2354189 0.18280308 -0.23652013 0.9591611 -0.49235368 -0.2099594 -0.4465092 1.130173 0.5858097 0.7357771 -0.018796979 0.34006378 -0.54859394 -0.57574856 -0.25776914 -0.3526964 0.9522082 0.9870351 1.0065042 0.019301465 -1.0211295 -0.31576008 -0.05018606 -0.31529096 0.18293609 -0.5522267 -0.35277343 1.229354 0.19295613 -0.43657023 -0.6831354 0.24237932 0.23056203 -0.09305976 -0.82452 0.47688198 0.4918165 0.6862862 -0.7291611 0.012264284 -0.35608354 -0.8950943 -0.4383084 0.0011575869 0.27002892 -0.77528065 -0.18667777 -0.8825945 -0.014378535 0.5919249 0.4127796 0.80829805
2638 0.090995654 -0.20216027 1.00603 -0.22544512 0.026987001 0.86405236 0.049453072 0.09628442 -0.34936243 -0.5814584 -0.1137481 -0.93234074 0.030336555 -0.17526488 0.15834545 1.1993718 -0.3284061 0.55652463 0.030330818 0.26430357 1.5760052 0.41835827 -0.9149275 0.02857875 -0.53103256 -0.24011411 -0.33170277 0.42983437 -0.05725386 0.015632141 0.26075324 0.35599303 -0.68654716 -0.16640326 -0.15893224 -0.21580303 0.5649835 -1.3875178 -0.6886376 -0.30561593 0.86122453 -0.43570766 -0.2828561 0.003052027 0.5433362 -0.37793422 0.18858932 0.07066024 -0.3169281 0.94408625 -0.1543315 -0.3233523 0.086301826 -0.30530462 -0.3482917 -0.18960501 0.026310408 0.6959422 -1.3769851 -0.2617575 -0.629477 0.8791197 1.1272694 0.1825054
2562 0.81144375 -0.05615108 0.9426452 0.11794267 -0.8468268 -0.2603465 -0.14478119 0.93912035 -0.3975195 -0.6564208 -0.42164987 -0.47343725 -0.18492332 -0.019447567 -0.5064799 -0.27018452 -1.2585906 0.8417771 -0.14167185 0.108144924 0.33712444 0.68553853 -0.1752379 -0.4234742 -0.84814537 0.35048094 -0.18981762 -0.19055592 -0.05227691 0.08161572 -0.15865958 0.20352194 -0.82208323 -1.554842 -0.60324 1.664077 0.3807749 -1.0147632 -0.45640925 1.5911999 0.67871696 -0.18251012 -0.5209803 -0.65919363 0.33397028 0.7997964 -0.46222255 -0.71091235 -0.04028561 0.40919408 -0.939495 0.2562634 0.30593053 0.27657247 0.49608645 -0.5255725 -0.8437073 -0.14179982 -1.4998115 -0.42988536 0.62811565 1.8518114 0.17769898 0.6219933
114 0.68368334 -0.024063159 -0.59704584 -0.18626384 -0.262091 -0.6825049 -0.68077093 -0.12184903 -0.39885998 0.12431388 -0.089289196 -0.27826312 -0.44179043 0.16099328 -0.15683469 0.5031017 -0.07015564 -0.21743676 -0.64001447 0.8129309 0.8647881 0.10922906 -0.28775313 0.099895395 -1.3295897 -0.7148549 0.04163288 0.019780545 0.81127393 1.1555969 0.2387352 1.0612447 -0.98508054 -0.5075766 0.5677289 0.9232253 -0.5410921 0.02740585 -0.82923806 0.0035289698 0.10556916 -0.34757042 0.22517036 -0.5421011 0.6659965 0.6923707 -0.22385618 -0.4718581 0.025747482 1.1936041 -1.0542532 -0.2789234 -0.4536283 0.21482755 -0.6465291 -0.6316391 -0.024677115 0.54431766 -0.8440099 0.0019233966 0.005857378 0.20115967 0.095335126 0.044036444
2736 -0.24456775 -0.15726879 0.42072776 0.39897785 -0.30742043 -0.05908443 -0.13555975 0.30137992 -1.1380271 0.7135499 0.37372532 -0.42330176 -0.964348 -0.69880587 -0.566271 0.9665761 -0.33390996 -1.3824475 -0.13086298 0.20002598 0.6206714 0.44147876 -0.2334274 0.04358415 0.022056937 0.5741424 0.46596578 -0.022614239 0.6196958 0.36864763 1.1706234 0.12140611 -1.5956602 -0.4629731 -0.498663 0.75600725 0.37185985 -0.5721511 -0.71288544 -0.788697 0.6670517 0.26707464 -1.6956189 0.74544525 0.83643985 0.06487187 0.061324008 -0.31161746 -0.20407541 0.3465119 -0.106203355 0.11402125 0.27876145 -0.09739775 0.31530616 0.54645616 0.049029555 0.13036941 -0.2459883 -0.2756 -0.31527558 0.4566677 0.8044223 -0.0029562851
173 0.48885545 -0.86805075 0.8602718 -0.110302694 0.59718704 -0.10088618 -0.744313 0.47274864 -1.0778234 -1.026609 -0.20026825 -0.115250826 -0.9772606 -0.236365 0.07812748 0.3079539 -1.0840797 0.3607091 -0.2817991 0.7170815 -0.27065778 0.76371837 -0.17788853 0.02842725 -0.11098006 -0.14940818 0.27376908 0.27220753 0.63760304 -0.19094561 0.505112 0.057335444 -0.68482935 -0.7267151 -0.56742734 0.04588623 0.12721325 -0.1614546 0.45264748 0.62088 0.6171667 -0.53700984 0.17652722 -0.46289572 1.0718883 0.5797285 -0.9116439 -0.5451073 -0.09679711 -0.6346532 -0.6132518 -0.68389094 0.30550388 -0.7537775 0.02284798 0.62034416 0.42300674 -0.46000192 -0.019821562 -1.2153119 -0.3082363 0.33193657 0.95984083 0.39529502
2780 0.41013306 -1.4979769 0.0920995 0.8612912 0.11658038 0.11792512 -0.5751894 -0.51287836 -0.7995983 -0.59747165 -0.12567188 0.3249849 0.44473177 -0.011158938 0.72284925 1.6175995 -0.17824246 0.9886518 0.7595261 0.21786916 0.90765667 0.0856666 0.53203684 -0.6834615 -0.4991654 -1.0385487 -0.57352275 -0.0684147 0.40467906 0.82212174 0.49008146 1.1951412 -0.5826311 -1.43662 -0.48157743 0.34132266 0.7138985 -1.1389261 -1.1751198 -0.398242 1.0371187 1.1963661 0.14007965 0.5459351 0.518836 0.4439516 -0.53561 0.037056375 0.7847074 0.9334784 -0.44404575 -0.48950863 0.07803645 -0.19632863 0.44489202 -0.23587185 -0.52806115 -0.531605 -1.3639183 -0.6429904 0.16627942 1.7296536 0.08934474 0.5233521
464 0.16778074 -1.1118604 0.40848377 0.79552954 -0.30315945 -0.45487267 0.7771432 -0.43806827 -1.5606469 -0.28932112 -0.22144371 -0.546268 -0.22695997 0.004232263 0.5857713 0.28928247 -0.81640303 0.18857092 0.06370438 0.3980247 0.5536116 0.5498654 0.647856 0.1913986 -0.32004672 0.3006176 0.20029707 0.3442667 0.29198828 0.035973996 0.51831377 0.41636646 -1.3197818 -0.8818873 -0.028851774 0.64824134 0.19991666 -0.068169855 -0.63602847 -0.03615077 1.0544593 -0.49785072 0.04347333 0.4872447 0.52166134 -0.5767854 0.13796085 -0.40320775 0.535861 0.76776314 0.05774949 -0.26876724 0.4628251 -0.13320954 0.32600746 0.075086534 0.6341913 -0.5693595 -2.0920753 0.23128313 -0.5054584 0.30038592 0.40597036 0.23671286
183 0.48113555 -0.17702597 0.32854414 0.31117153 0.5626372 0.6251329 -0.82964873 0.65372926 -0.8373949 -0.26490834 -0.19845352 -0.6276978 -0.85413206 -0.28925115 0.2050981 0.7744721 -0.2793428 0.21506348 0.31002766 1.0059915 -0.09418492 -0.49862388 -0.6908899 -0.4832169 -0.40847525 -0.07205414 0.2546828 -0.21023013 0.9651606 0.2569207 0.81843287 0.1377973 -0.35232958 -0.21797363 -0.20433632 1.2301285 0.49849796 -0.44759673 -1.4096215 0.9889493 0.29294395 1.1712348 -0.46871904 -0.7966879 0.66565794 0.66194177 0.08521821 -0.55056506 -0.38323537 0.370631 -0.48347804 -0.71105796 0.2914348 -0.44095328 0.4454548 0.018893251 -0.46833512 -0.13134103 -0.13091876 0.58851403 -0.4417773 0.9639912 0.24797891 -0.1749601
994 0.14104669 -0.68109614 -0.5527854 0.20403315 -0.34782937 0.3256355 -0.41502398 -0.96156156 -1.1057441 0.3886744 -0.13802415 -0.10700007 -0.5206332 -0.05811846 -0.2802651 0.873971 0.10684361 -0.55676574 -0.9616168 0.4564085 -0.23412786 0.6161672 -0.13557613 -0.8838238 -1.0998828 -0.23329325 -0.40966067 -0.13588125 0.25994512 1.2510053 0.2630983 0.22617646 -1.2681615 -0.9918427 0.24104649 0.48584855 -0.39659965 0.106458515 -0.59821093 -0.1320507 0.5935087 -0.49532062 0.031975035 0.7450036 0.7961599 0.4856518 -0.45933375 -0.46243444 0.48371214 0.9504363 -0.4497479 -0.8197191 -0.6213245 -0.118333824 0.3059912 -1.0135164 0.33807796 0.95495135 -1.258805 0.42229864 -0.24843878 0.7093536 -0.4364218 -0.0022099535
2555 1.3902689 -0.09656618 -0.80700004 -0.2639479 -0.41418698 0.26560128 0.30390936 -0.31438583 0.39599085 -0.5232499 0.3767965 -0.54062694 -0.7552586 -0.82004845 -1.1723042 1.7161884 -0.69240355 0.13526711 0.35440084 0.36498696 1.3126695 1.5323323 -0.31195867 -0.686005 -0.35236838 -0.73514 -0.72531515 -0.15710525 0.5470132 0.4274479 0.76400006 0.074122116 -1.540638 0.08168961 -0.7625462 0.23472364 -0.6872823 -0.1425048 -0.9552626 0.51424867 0.115386285 -0.79505986 -0.6474021 0.88788736 1.2777348 -0.4410108 -0.94244957 -0.80850136 -0.69489324 1.0650872 0.06091741 0.31070492 -0.5998526 0.08088697 -0.22414452 -0.3116867 0.6883059 0.37591964 -0.71571404 0.11258756 0.28665224 0.4035377 1.1205618 -0.6529568
1834 0.5071654 -0.4832376 -0.029697705 0.3030799 0.15223266 -0.4857133 -0.23933877 -0.36565033 0.14608812 -0.54474336 -0.05360601 -0.99655086 0.20996794 -0.24416701 0.28052786 0.93839484 -0.6295883 -0.124308236 -0.3194539 0.25919947 1.113445 0.4660897 -0.21856904 -0.5991065 -0.8511712 0.4100423 -0.28582662 -0.341494 0.519022 -0.26906672 0.2724055 1.1440922 -1.2966552 -1.1813971 -0.21638612 -0.35454822 0.23267035 0.009093857 -1.1994902 -0.2728526 -0.045328423 -0.09612653 -0.7809835 0.23391755 0.60753065 0.0298779 -1.0226587 -0.008918043 0.41788468 0.26468217 -0.7014084 -0.068180904 0.27670848 -0.6713225 -0.038286973 0.14146364 1.2556591 0.31342098 0.41934955 0.68892 -0.16787897 0.7345374 -0.021051757 0.24648367
141 0.16199937 -0.23453113 0.33323216 1.2358102 0.07027438 -0.055904835 -0.1085216 0.39560536 -0.9959995 -0.5167555 0.9387057 0.591357 -0.63364017 -0.97549534 0.4445112 1.4967949 -0.9225736 -1.1817833 0.43434322 0.5251063 0.36344147 0.72868615 0.09117562 -0.4362629 0.076816946 -0.19501862 -0.37402204 -0.10020397 0.15307747 0.9313053 0.98927444 0.3447633 -0.52883464 -0.30301583 -0.097283244 0.55422395 -0.28062555 -0.20786576 -0.056693844 0.11051669 0.018332804 0.025311455 -0.016511876 0.40236506 0.27895 -0.17821556 -0.3913397 -0.0984988 0.7791397 0.9879652 -0.4347709 -0.68152755 -0.40695247 0.40049297 0.048822496 -0.593457 -0.27660784 -0.39432988 -0.21271014 0.049211632 0.8146728 0.77257705 -0.2818884 0.4882297
2217 0.70291376 0.31274474 -0.27655306 0.17026225 0.8303806 0.017926764 0.12912816 -0.57364243 -0.19261509 -0.17301479 -0.88900733 -0.27646178 -0.5100292 -0.29248986 -0.21169391 1.741249 -0.61618656 -0.85964966 -0.61895996 -0.31399786 0.39014095 0.07465819 0.32126445 -0.11817828 -0.39958155 -0.5608187 -0.35226697 -0.04962584 1.2075326 0.49512246 0.21209674 0.20046872 -1.0913336 -1.0978386 -1.0130641 -0.008540742 0.36325485 -1.0129378 -0.20979095 0.3624968 0.5521871 0.6636687 -0.110389754 0.13351542 0.34301293 0.167326 -0.76292396 -0.954869 0.35578403 0.08310912 0.25640452 0.30389863 -0.07871325 0.0568992 -0.2558668 -0.34488225 -0.5487048 0.77495986 -0.7674331 -1.2033 0.63353235 0.8222032 -0.030217836 0.037480675
2490 0.7325531 -0.56048626 0.44792363 0.9895074 1.0741762 -0.3772139 -0.26648858 0.4793561 -0.27600542 0.025352312 -0.87555945 -0.8092095 0.18946 -0.335026 -0.2876303 1.0156314 0.19383015 0.10913148 -0.17120332 0.8646886 0.5818977 -0.23653884 -0.16593263 0.022646695 -0.5544527 -0.27043512 -1.0409845 -0.558091 1.2962803 0.17246148 0.049243547 0.71816987 -0.3085929 -0.18376021 -1.1178477 0.30215284 -0.019449733 -0.9496502 0.12507221 1.0925978 -0.22438043 -0.27096185 -0.25133005 0.21603984 0.4111897 0.09319933 -0.9603717 0.029527165 -0.7640863 0.45961782 -0.58406794 -1.4799905 1.2435824 -0.23374717 -0.17082399 0.55317277 -0.4018847 -0.78892577 -1.056795 -0.30254903 0.32017186 0.82749367 0.4124056 0.068898104
532 1.0597527 -0.7676244 0.57968694 0.41359144 0.22805518 0.79063165 0.08248819 -0.21054688 -0.48025483 -0.85388523 0.33586517 0.16323972 -0.54605466 -0.17664789 -0.5385427 0.7815932 -1.3237596 -0.23690522 0.33177432 0.26054445 1.1657163 1.3042173 -0.5562722 0.20672171 -0.1658024 -0.6137164 -0.16850558 0.9312132 0.36497092 0.24402417 1.3876796 0.2206158 -1.2027973 -0.66582257 0.5334588 -0.6699077 0.6266163 0.102443926 -0.9748256 -0.5392302 0.40067998 0.13889255 -0.9512462 0.47108757 0.67113835 -0.004553259 -0.5914013 -0.96343285 0.10394706 0.48009834 -0.39407465 -0.48700538 0.26188028 1.0148603 0.2958325 0.6368205 -0.4566497 0.012641892 -0.7519919 0.5908728 -0.3330004 0.4623511 0.5501464 1.1514912
1927 1.18973 -0.28834632 1.0541229 0.46552017 0.3810617 -0.049971033 0.16515808 -1.2038828 -0.13937423 -0.3379491 -0.92948776 -0.5862284 0.4621013 0.74383134 0.5720086 0.8592804 -0.23659343 -0.7196725 0.49131283 0.6871413 2.21094 0.81473315 -0.31156325 0.29818028 -0.96440995 -0.04103653 0.48530966 0.17868352 -0.043148335 0.77664685 0.48312628 0.15007141 -1.1811262 -0.5924323 -0.04860192 0.69060826 0.33204746 -0.68135923 -0.7886124 0.29875502 0.8537432 0.4086146 0.14181499 0.29413196 1.1326343 1.3511204 0.1413391 -1.0733055 1.1346976 1.2856573 -0.36247373 -0.49832165 1.2352656 0.11409641 0.94389856 -1.1239517 -0.4255638 -0.30461833 -1.1440269 -0.9784103 -0.54646456 -0.15853356 1.217171 -0.49674755
1299 1.0673418 0.17959237 1.1485481 0.8427355 1.0779337 -0.02762602 -0.70481163 -0.10697841 0.045826267 0.08523842 0.1905316 -1.0343657 0.6718651 -1.4237901 0.2909318 2.5424993 -1.0573704 -0.5089672 0.39978984 0.23376162 -0.046966948 0.000997742 -0.30809164 1.0400074 0.17668317 0.04055076 0.69591 -1.1457 1.0674156 -0.3977337 0.48808926 0.57816464 -0.97624797 -0.4979855 -1.1218544 -0.07633885 0.7964576 -0.8036283 -1.1672919 0.43417168 0.3573837 0.11450715 -0.13979085 0.33689502 0.97993624 -0.20500568 -0.6497497 -1.9776163 -0.38689086 -0.23434229 -0.88160694 -0.46849227 0.8736479 -0.4807429 -0.060145665 0.42146704 -0.49819425 -0.15048836 -0.24838315 -0.4039285 0.53998804 -0.17593093 1.0737722 -0.108426325
2498 0.24646048 -0.66486305 -0.085914135 0.7568238 1.0290215 0.21824992 0.29639533 -0.14107472 -0.26093778 -0.7431748 -0.40758115 -0.7952446 -0.33643577 -0.89619315 0.2189192 0.88643265 -0.23032485 -0.38017783 -0.30213228 0.3727054 1.0049574 0.7048611 -0.63085604 -0.022663465 0.68522215 -0.22411777 0.47291735 -0.017923411 0.7074162 0.9400344 0.08850239 -0.47980732 -0.48739383 0.08576927 0.10127184 -0.5356717 0.6219591 -0.52494043 -0.090527534 0.09366479 -0.40084437 0.15993841 -0.51380926 1.1246932 1.8902369 -0.08872575 -0.21098872 -0.31388947 -0.051292274 0.1427661 -0.65681946 -0.68799645 0.19703211 -0.25683302 0.27735874 -0.0036436722 0.38591278 -0.34226453 -0.81509644 -0.10393121 -0.011716982 0.5634771 0.65834856 -0.22016703
1383 0.14729504 0.1961165 0.3030449 -0.021987595 0.6108352 -0.11034783 0.05977397 0.18503255 0.3774803 0.09766074 -0.27501905 0.32977727 0.46641165 -1.2735032 -0.3783931 0.5459183 0.09919917 -0.15394798 -0.088934526 -0.16573332 0.22112606 1.1672657 -0.16041893 0.09859358 -1.0717834 0.0056880587 0.2787883 0.42322376 0.45338663 -0.18744212 0.24532165 0.45830464 -0.44903773 -0.41931543 -0.40584376 0.9450395 0.5877087 -0.8140147 -0.6748582 -0.19268386 0.23229894 0.09930071 -0.29966322 0.6113706 0.323447 0.06823015 -0.11552924 -0.91321176 0.25439465 1.2582443 -0.24963713 -0.6236492 -0.60709465 -0.46766436 0.6239361 -0.76085234 0.1940513 0.305755 -0.7367146 0.18804833 0.5435627 1.3953968 -0.24484089 0.58749914
3068 0.75362223 -0.23091595 0.8193082 0.32490295 0.363395 -0.6645891 -1.01622 -0.2605194 -0.34944794 -0.9827917 -0.41005152 -0.021717377 0.23984142 -1.0841396 0.2468829 1.7239692 -0.19581868 -0.18417113 1.1857144 -0.6320116 0.5472188 0.16295093 -0.21490015 -1.0824182 -0.9038292 -0.3598055 -0.060494624 0.26943317 0.9877444 0.19036564 -0.020153327 0.29860345 -1.2430197 -0.05470801 0.05400335 -0.44659773 0.8811261 0.13483104 -0.5316513 1.4622321 0.5546266 -0.75523823 -0.5790967 -0.3073474 1.3392066 -0.6863613 -0.80629635 -0.29489222 0.5228796 -0.45572457 -0.9848427 -0.88382703 0.43582675 -0.656806 -0.7601097 -1.0697427 -0.5660113 -0.17466633 -0.6349115 -0.60543716 0.39023346 1.8681694 1.1455306 0.50052404
116 1.1074566 -0.5679124 0.70120984 0.12705751 -0.8992414 0.044518113 -0.48961946 0.54205215 -0.78540856 -0.6199928 0.7235135 -0.3303623 0.15011708 -0.124282695 -0.63525695 0.7901601 -0.49625698 0.71941704 -0.5284275 0.51624304 0.77899325 0.39714682 -0.27921322 0.10176097 -0.18335046 -0.31117165 -0.27133498 -0.18496531 0.7503292 0.5542044 -0.122885674 -0.36903918 -0.900342 -1.0055953 0.19718517 0.7282584 0.18905658 -0.53887874 -0.33531553 -0.03369995 -0.29045826 0.025224673 0.31055498 0.4991916 0.39032587 -0.45055923 -0.67976886 -0.58364254 -0.2287887 0.8648732 -0.72951066 -1.4230691 0.7146702 0.08492249 0.42296138 0.44455734 0.2409192 -1.0130295 -0.11995245 0.6326227 -0.09964917 0.67202926 0.4935423 0.076187976
